9 128
中国 -0.5194936 -0.2022509 -0.30427074 -0.12477517 0.13190342 0.50549656 0.46304676 -0.7014265 -0.07195745 -0.23854959 -0.30104315 0.014156163 -0.24934411 -0.43934143 0.06300192 -0.39883095 0.25298518 -0.79917693 -0.17069095 -0.4637491 -0.023825083 -0.4462324 -0.05709659 -0.4356616 0.77380586 -0.6019626 0.26437867 0.1425272 0.52520907 -0.051853288 0.15640433 -0.24104147 -1.4949493 0.13963136 -0.1886847 0.29251805 0.33237082 0.13168617 -0.38869345 -0.04140459 -0.099816695 0.35661796 0.36721113 -0.67272186 -0.21940997 -0.485089 -0.5126285 0.19223762 0.11282604 -0.23919693 -0.20650803 -0.23289895 0.18066482 0.32188258 -0.57372445 -0.011231316 -0.7509195 -0.14765142 0.30342358 -0.21925262 0.24989271 -0.04432372 -0.33829135 -0.12639153 -0.2020211 -0.28218955 0.15035777 -1.1929467 -0.2897456 -0.3052065 -0.7398929 -0.46648517 -0.18508768 -0.1483192 0.65718305 0.35329598 -0.13573936 0.58891207 -0.18203025 -0.37105322 0.37235555 -0.2658234 0.73414725 -0.34523046 0.4689858 0.18089882 0.25829202 -0.3185585 -0.6471977 0.48200122 -0.44306424 -0.056645323 -0.068394214 -0.62058365 0.28637248 0.22168212 -0.22698134 -0.5242521 0.4166973 0.34220815 0.017229736 -0.8981977 -0.29711255 -0.2966911 0.080893345 -0.41488412 0.06636275 -0.037511386 -0.31568697 -0.5925701 0.10561152 -0.2334122 0.85463333 0.41899303 0.04575146 0.27991277 -0.0954578 0.59207714 -0.37494105 -0.075608715 -0.3877576 -0.41924274 -0.7318123 0.38457388 0.104291506 0.028387565 -0.29095107 -0.14048102
足球 0.35402596 -2.4471035 0.03735099 1.0523957 1.0475117 1.163443 -0.2413223 0.03267899 0.18043903 -1.4317749 -1.1637605 -0.044940054 0.27758044 -0.17717746 -0.85623324 -0.14733455 0.18585339 0.5776934 0.36969137 0.22326252 -0.11831709 -0.14074504 0.23936829 1.3647751 0.9095777 0.7041216 1.4093941 -0.06922775 0.74895775 -0.24080199 -1.6198047 0.05032109 0.11893763 0.29696813 0.76569605 -0.09017681 0.23355788 -0.23491064 -0.50899386 -1.0543463 -0.9410678 -1.0297184 1.2307976 -0.88582724 -1.2863494 0.7679802 -0.041004103 -1.0003536 0.13325721 0.065929845 -0.1788034 1.6350273 -0.4554153 0.709726 -1.4277741 0.5304579 -0.4478087 0.45601106 0.089961566 -1.2185448 0.4021021 -0.8726547 -1.402031 0.19559315 -1.2841401 -0.11090356 0.7903301 -0.7784134 -0.10649125 -0.29749623 -0.7685636 -0.4554019 -1.8972869 0.64664304 1.1334178 0.42088446 0.15395235 -0.6049211 0.1784873 -0.680036 1.2059206 0.3047608 0.68896765 -1.1035771 -0.47303188 -0.31002647 -0.686892 -0.16879748 -0.38722807 -1.3112645 -0.3128424 -0.2912362 -0.55512744 0.038950052 0.7143431 0.14859714 -0.12854488 -0.8681844 0.0046243235 -0.09100008 -0.023554994 0.5868744 -0.19062865 0.13581908 0.1829507 -1.1798443 0.79283845 -0.06344445 0.075922765 0.25990957 0.3397689 -0.37458736 -0.41429394 -0.18213363 1.2247328 -0.6831215 -0.93143946 0.90078413 0.19438085 -0.4336488 -0.20133185 1.1899291 -0.23526774 -0.11099895 1.2774643 -0.0074375626 0.7921623 -0.20698036
不错 -0.20760149 -0.0063371332 -0.209735 0.18708779 -0.02199716 -0.14521326 -0.20051546 0.017089775 -0.18599527 0.28672355 -0.1477453 -0.091085345 0.06394084 -0.22942902 -0.021286935 0.21580042 0.08756903 0.016991057 -0.11084112 0.25140655 0.03587809 -0.15909614 -0.14009446 -0.0724846 -0.008127783 0.37505436 0.039071083 -0.2413278 0.1980584 -0.0830079 0.33022684 0.06946348 0.084590815 -0.029633034 -0.4797433 0.22178097 -0.21634582 0.3537002 0.3716462 -0.45838264 -0.035912655 -0.0014702792 -0.11629578 -0.15609926 -0.23547043 -0.23608558 -0.09633344 -0.082632154 0.24639675 -0.3282085 0.0645618 -0.11739427 -0.20162661 0.014530456 0.116512924 -0.3801772 -0.038367864 0.13463767 0.08497016 0.10882201 0.040054098 0.041768137 -0.24791664 -0.31212324 0.0078020883 0.2575659 -0.08991906 -0.026577644 -0.04469708 0.046206128 -0.08291529 0.075569175 0.07630913 -0.2353049 -0.015440546 0.34587026 0.16960241 -0.18834108 -0.12028743 0.23585047 -0.026715199 0.08740418 -0.112574846 0.4885839 -0.17082982 0.30791855 0.16466592 0.07549295 -0.10104712 -0.31974134 -0.009310302 -0.03146236 -0.20531413 0.05957038 -0.07210249 -0.30072084 -0.02523239 0.010985237 -0.35028997 0.097156845 0.33103704 -0.42266083 -0.08946138 -0.33532023 0.015424717 0.02576089 0.07950813 -0.08192212 -0.06645388 -0.035469823 -0.15435444 0.05298487 -0.08185516 0.064797424 0.046420056 -0.0007643034 -0.09278188 0.1956396 0.11585922 0.043879546 0.0901349 -0.31209478 -0.14107142 -0.0071955468 -0.07595988 0.09275261 -0.06154152 0.22369997
篮球 -0.27432212 0.7316561 1.436149 0.56244904 0.18366486 0.064570345 0.15587084 -0.20467257 0.084647015 0.26366264 0.847934 -0.44024593 -0.072507 0.04491399 0.20497817 0.9239608 0.6261487 0.9220463 -0.17221904 0.59678686 -1.4608843 0.023142587 -0.05783214 -0.4427433 -0.53606814 0.0142333815 1.1213219 1.0118797 0.57302123 0.87859553 -0.7896478 0.118337356 -0.18246184 -0.13638778 -1.163494 0.3639363 0.7715668 -1.2935411 -1.0598172 0.8589699 -0.66504115 -0.45722172 -0.35580143 0.21338554 0.14277457 -0.7464388 -0.16092287 0.2884922 -0.3911364 0.2892698 -0.5061114 1.1097387 -0.6357345 -0.38188773 -0.112693764 -0.8047213 -0.6114959 -0.5497025 0.061575446 0.7466356 -0.6464107 0.04164474 1.6268388 -0.24998038 0.92513424 0.115314305 0.2166268 0.28598872 -0.22429718 -1.0109663 -1.678906 -0.11169683 -0.18784189 -0.906105 -0.3391746 -0.58901834 1.3773636 -1.186878 0.36455435 -1.0661333 0.08349535 1.1890768 1.5445297 -0.9964701 0.5877038 -0.44552788 -0.44313684 -0.8397494 -1.0895758 0.43138617 1.0679173 -0.9419544 0.41421083 0.6243072 -0.7631236 -0.8626773 -1.0239259 -0.44664598 -0.5714284 0.36609146 0.34123242 0.31553724 -0.8485782 0.0560119 0.63624316 0.48361397 0.30524462 -0.56426364 -0.4719721 0.118909284 1.266304 1.691966 0.5949027 0.7727375 -0.87661904 -0.13101391 -0.056721862 0.48312992 0.68418044 -1.9109067 -0.14820927 -0.24652115 0.20064768 -0.27735016 0.053435497 1.0299722 0.3019194 -0.43192887
羽毛球 0.15336844 0.5893532 0.14093511 0.04846354 0.33655387 0.16586071 0.39112985 0.34990722 0.24222754 0.3743815 0.18103836 0.13692676 0.124286644 -0.6147867 0.15901792 -0.074790664 0.72820795 0.15775046 0.4704087 0.7569644 -0.102729134 -0.17492552 -0.10541856 0.21703245 -0.23548812 0.0014892701 -0.052191157 0.13535573 0.18021773 0.060419783 -0.010995444 0.429742 -0.19441758 -0.6410678 0.14971893 0.19087066 -0.01830773 -0.03282736 -0.828318 0.6963798 -0.3008882 -0.11927338 0.53775924 -0.15397294 0.6013516 -0.660292 -0.24737254 0.93666244 0.30934674 -0.23826681 0.052575365 0.15092532 0.29949602 -0.6083204 -0.5681286 -0.09406845 0.26923957 -0.31617954 0.34401172 -0.46942815 -0.52892256 0.4895405 -0.1066061 -0.36517274 -0.13573468 0.011295038 -0.668853 0.2841952 0.14469226 -0.14790922 0.0915464 -0.24147868 0.32447258 -0.26167643 -0.3141196 0.319008 0.20832635 0.12172414 -0.26300463 0.15553555 0.39566168 -0.25730377 -0.13747936 -0.45643795 0.15147571 0.22870143 -0.017358609 -0.092896804 0.14613874 -0.7112123 -0.27378568 0.43746802 -0.41322836 0.123659246 -0.05920626 0.34795734 -0.28673673 0.34782067 -0.5659878 -0.40131226 0.05833066 0.5653042 0.056714475 0.3412222 -0.14738233 0.21143273 -0.4838606 -0.096466154 0.15951441 0.13830867 -0.2518548 -0.035665818 0.06112439 -0.30495656 0.25699437 -0.41810855 -0.09650558 0.08321636 0.27738816 0.2375151 -0.25246325 0.38359517 -0.1939657 -0.4501599 0.035343826 -0.3064849 -0.25562862 0.2843035
美国 -0.39413357 0.0981331 -0.26379988 0.5772068 -0.67251325 -0.29746634 -0.899994 -0.6242983 0.5712928 -0.29412654 0.12002236 -0.53505236 -0.1053797 -0.25181475 0.05002889 0.3913683 -0.0645335 -0.51857746 -0.60390526 0.1745447 0.059311885 -0.24696065 -0.07211357 -0.17827602 -0.27782404 -0.8418448 0.44500372 0.050223056 0.3411556 -0.4668248 0.39242348 0.5817324 -0.3770727 -0.69156116 0.07202484 -0.06800916 -0.32727614 0.3809571 0.17599642 -0.28178427 -0.58923805 -0.84907556 -1.4021404 -0.14799868 -0.6441163 -0.1626264 0.061102424 -0.77641875 -0.57531565 -0.16181518 -0.090338655 1.0896752 -0.62662685 -0.28460544 -0.78500223 0.3886709 -0.48437414 -0.12977616 -0.79042023 -0.79777086 -0.77810884 0.24644554 -0.886014 -0.90329134 0.35072783 0.23331963 0.09690882 0.38065174 0.3102583 -0.23463032 0.3516215 0.79650956 -0.15851372 0.8332558 0.56058985 0.4854385 0.41630846 -0.070004195 -0.01239451 -0.5124093 0.13443315 0.8327256 0.47300825 0.85477906 0.09958513 0.65628684 0.6703781 0.37353873 0.39587143 0.62891126 -0.14600529 -0.12715209 -0.276295 0.7546038 1.0468175 -0.54903376 0.14174931 0.49559006 -0.84708685 -0.43972033 -0.31520247 -0.37535292 -1.0859034 0.66963494 -0.280226 0.5341176 0.95339084 -0.08260191 -0.11642746 0.29271472 -0.20032641 -0.33811012 0.24467273 0.5136384 0.003274787 0.06797771 -0.46114415 0.18448058 1.1002265 0.3320789 -0.23645198 -0.8508695 0.121731065 0.35580346 -0.74443567 0.5541443 -0.6294989 -0.20151363
俄罗斯 -1.2330709 0.49400485 0.7913859 -0.678239 -0.07412962 -0.26059172 -1.1456516 -0.00014078697 0.6536479 0.22545871 -0.53851056 0.57697016 0.6724852 -0.8445981 -0.6005103 1.3594378 1.2035855 -0.63430274 -0.5907666 -0.8010088 0.3002139 1.0083562 -0.093241245 -0.623959 -0.07545375 -1.2830771 0.5894429 -0.16039734 0.76315385 -0.6936343 -0.79950494 -0.21959414 -1.0612965 -0.35325894 0.3872313 0.9824955 -0.38139808 1.7845076 0.058294624 0.47047845 1.4772186 -0.04389429 -1.6569767 -1.5153984 -0.37576172 0.53840834 0.39884487 -0.6761376 -0.8593622 -0.4678748 -0.20265493 0.640798 0.4305324 -0.42664614 -0.42878917 1.6793051 0.07658959 0.19461493 0.69224095 0.7033414 -0.3842244 1.2122964 -1.1122001 0.68654245 1.3627182 -1.7707287 -0.17305365 0.8772239 0.37516066 1.2637024 0.7928749 -0.21919256 -0.6784796 -0.23024711 -0.22693439 0.27937207 -0.11664629 0.70949835 0.011055485 -0.1573916 -0.62133014 0.102396384 0.59015775 -0.2961929 0.7029696 -0.32597217 -0.21820639 0.6303617 0.63265735 0.8244292 -0.5191165 0.052981626 0.18655045 -0.97080696 0.27611405 0.56419146 0.5894396 0.792807 -0.90863353 -0.27877945 -1.2570007 1.3195266 -0.7167716 0.15695162 0.5273761 0.3033653 0.2864673 0.79215944 0.11524791 -0.46168205 0.489039 0.06476567 -0.014358005 0.11028967 0.19019848 0.37827334 -0.9686321 0.26409572 0.553153 0.61260116 -0.29377145 -0.06492575 -0.34348443 1.05692 -0.6702536 -0.09893336 0.8786209 0.73596466
英国 -1.0155339 0.12232167 -0.18672922 0.64919037 -0.6923469 -0.723435 -0.27004674 0.19675793 0.13210686 -0.7978333 1.5182064 -0.1855063 -0.30708653 0.19314167 0.6715591 0.043638207 0.18418424 -0.5170574 0.33232296 -0.5337496 0.46096435 -0.80652916 0.81835735 -0.5150279 0.008670756 -0.993305 0.18250328 0.5382514 -0.21957475 -0.19469243 -0.054072347 0.28292704 -0.2819714 0.3184692 1.319707 -0.4905578 0.15140133 -0.33460006 -0.21549876 0.5321455 -0.40733227 -0.66641694 -0.25224167 0.6332684 0.6633964 -0.014443079 -0.29182777 0.8401543 -0.09003304 0.6978501 0.2932554 0.0010535117 -0.60277164 0.714901 -0.5483465 -0.097272456 0.056290954 0.5271683 -0.052876156 0.20352131 -0.14070831 -0.23122056 -0.8688282 0.040079214 -0.32200262 0.25620377 -0.13843812 0.4729546 0.6511188 -0.16305074 0.060003765 -0.8760713 0.3857212 0.21117398 0.54302746 0.58744574 0.19416225 -0.7166409 -0.5287267 -0.41626272 -0.14200918 0.07990343 0.88183355 -0.26146623 0.15980284 0.2993194 -0.5938039 -0.59559536 -1.0047066 0.63935816 -0.031387415 -0.50677705 0.2599361 0.6153762 -0.5880103 0.28306836 -0.2233754 -0.066293836 0.6475783 -0.5535389 0.3052568 -0.047132153 -0.12351857 0.26168746 -0.17746639 0.494624 1.0260288 -0.99439126 0.7658756 -0.63079906 -0.88677895 -0.809267 0.5953283 0.08675091 -0.28719532 0.20352353 -0.41751355 -0.20232604 0.59966946 -0.036770537 0.428634 0.0010326518 1.0009365 -1.3214897 0.5020479 -0.60355127 0.20968409 -0.64731
橄榄球 0.46304005 0.2739466 0.6885304 -0.35466364 0.0042111166 -0.36174634 0.37006494 -0.1928441 -0.5062009 -1.4640306 0.50066185 0.22917959 0.4271062 0.19289568 0.29476842 0.06779643 0.5126555 0.16422872 0.7130136 1.5734853 0.24287096 0.5358667 0.53256387 -0.10552384 0.0077009434 -0.16049594 -0.4422039 0.8996055 0.36988872 -0.6841444 0.60871696 -0.13645108 -0.52298504 -0.37298784 -0.60281724 -0.44969407 -0.3158766 -0.55453765 0.2982053 -0.16413799 -0.97532505 -0.78953415 -0.19437303 0.665092 -0.5872337 -0.5487493 -0.5008317 -0.2770249 -0.37767142 0.07659912 0.22658843 -0.16429457 0.33730248 0.51692337 -0.75225425 0.11391728 -0.62939644 0.10640892 -0.15877019 0.3557953 -0.15354732 0.029645989 0.21708821 0.21902862 -0.70644414 0.08142397 -0.6484576 -0.19285446 -0.033451132 -0.15725568 0.3224923 0.84360915 -0.67921335 0.8383524 -0.37144607 -0.15406035 0.2923203 0.082158856 -0.039535932 -0.5203871 0.2799293 -0.24764445 0.880623 -0.16957814 0.039187882 -1.3161794 0.361975 0.32047713 0.4997466 0.20069826 0.512821 -0.559561 -0.11488106 -0.51916355 -0.44450912 -0.9734891 0.104714826 1.1336695 -0.5508759 0.005615107 0.068349645 -0.12866491 -0.059971362 0.4011487 0.39522094 -0.36161888 0.28802097 -0.6906233 0.5468454 0.25504652 0.40592426 -0.5973768 0.705581 0.3650329 -0.37007844 -1.7950258 -1.1099395 0.24271996 -0.38232586 -0.8188629 -0.0883725 -0.3827075 0.3382805 -0.7414474 -0.68348944 -0.139528 0.6715628 -0.23230511
