20 256
苹果 -0.87496537 -0.07162312 -0.025484866 1.1882635 -0.42067623 0.111249745 -0.13898996 0.45965505 -0.1464119 -0.16538061 0.026762672 -0.4375987 -0.30576923 -0.30470315 -1.1281867 0.42476594 -0.7987993 -0.48724997 0.1668824 -0.5185029 -0.17530671 0.5567011 0.55401397 -0.12034754 0.5204991 0.40050417 0.026280405 0.06947012 -0.15222536 -0.68929017 0.19273986 0.59371287 -0.4301051 -0.42426524 -0.9604342 -1.5038812 0.78889257 0.015038654 -0.41557446 -0.8137975 0.5478201 -0.50410366 0.75336 0.10638646 -0.35075888 -0.6513611 0.45336172 -0.22970602 -0.5381371 0.63580257 0.2441492 0.22044808 0.99724025 -0.36150956 -0.21700534 0.38775146 1.2617027 -0.2805923 -0.110140204 -1.331951 0.278627 -0.044206485 0.37433866 -0.21914074 -0.31802535 0.019670414 0.59816164 -0.90807205 0.06401204 0.63786507 -0.011114617 -0.35891178 -0.7014564 0.21328166 0.40688017 0.3101215 -0.061860163 -0.2272239 0.082500435 -0.68087137 0.58114654 0.12189708 -0.13692933 0.25385627 0.07765747 -0.50563586 -0.52899355 -0.20471437 -0.028589914 0.2974804 0.45553637 -0.3542736 0.39930567 0.6250725 -0.04083135 -0.5307678 0.35269463 0.69740933 0.98667043 -0.19772486 0.25749725 0.06080158 0.07649354 0.12549016 0.88197577 -0.37594858 -0.40839043 0.40434507 -0.7222523 0.9582035 0.05412668 -0.001994926 0.21763526 0.41549802 -0.04466193 0.21913373 -0.11820362 0.48835686 0.8493658 -0.38570708 0.5614695 0.017911388 0.40364775 0.18863913 -0.12830697 -0.07085852 0.7696507 -0.26295036 -0.019913692 0.4332924 0.2561131 -0.065985456 -0.27229017 1.0077267 0.416917 -0.1071969 0.7708002 0.028239338 0.3150996 -0.13763937 0.79468405 -0.08964535 0.24685112 0.22218943 -0.041078757 0.44947666 0.1072803 -0.43535644 0.5844171 0.34689057 -0.61061317 0.2432138 0.08278131 0.14339146 -0.27671027 -0.40658328 0.8655767 0.10271079 -0.96881497 0.14542407 1.2448629 -0.045425706 0.33199063 0.20619538 -0.044550225 -0.03335889 0.5727335 -0.37817508 -0.37590048 0.05511201 0.86773604 -0.75729525 1.0706886 0.06048912 -1.0995251 -0.37524858 -0.24671158 0.07409144 -0.20915268 0.7510892 -0.11604693 0.5847286 0.23593238 0.17676118 0.048304446 -0.45053497 0.2807042 -0.61609924 -0.25195515 0.17168736 -0.4223219 1.0137795 -0.6281362 -0.44790852 0.57996583 -0.038056567 0.63625145 -0.23836051 0.051902205 0.6411957 -0.2426208 0.7334769 0.0902447 0.5104592 0.29639095 -0.4029002 0.85469127 -0.20812443 -0.25963974 0.22857225 0.3208002 0.38430494 -0.8133795 -0.6035731 -0.21575186 0.10686178 -0.6055495 -0.8238816 0.066795506 -0.2857113 0.13071352 0.13910805 0.6557094 -0.40954432 0.6180231 -0.59165925 -0.020000996 0.73320055 0.17781548 -0.3087267 0.056144617 0.4956789 -0.26577985 0.115577325 -0.43619812 0.32334194 0.47653466 -0.44219813 -0.7446007 -0.5612532 0.14463623 0.43197635 -0.288664 0.6595984 0.48874727 -0.2793313 -0.31395194 -0.28691396 -0.07656354 0.43690032 -0.07168113 0.10815072 0.15900117 0.25225177 -0.23321375 0.349025
手机 0.531189 -1.4446058 0.54805833 -0.411344 -1.0914371 -1.1428415 1.0825722 0.49593842 -0.3104828 0.21419968 -0.29853258 -0.5323544 0.7729616 -0.21013527 -0.34314868 -0.10963939 0.2644269 1.510909 -0.14742184 0.1720627 0.19636731 0.2324497 1.5680113 0.23286988 0.50195336 -0.5845103 -0.82033145 -0.18090905 0.21926609 -0.66690856 -0.8286658 -0.31688568 -0.40155563 -0.10278804 1.3873174 1.7414558 -0.09556222 -1.3755577 -0.0007582548 -0.21396172 0.2586438 0.1687063 -1.0611585 -0.3824147 0.69127136 -0.7068686 -0.94347143 -0.3532828 0.037093345 -1.536526 0.04939429 -0.387943 1.2462215 -0.06202534 1.4671496 -0.57425857 -0.35393512 0.019770274 -0.5561827 0.24007903 -0.36549044 -0.38561293 -0.9482484 0.13629815 -0.27900857 0.26905254 -0.6771221 1.5907581 0.914986 0.9017237 -0.050648842 -1.1946453 0.8469814 -0.5705631 -0.3562218 -2.256367 -0.68452567 0.15820155 0.7573267 1.7103773 -1.913203 -0.95328677 -1.1522954 -0.22704643 0.061105967 0.42505792 -0.32548988 0.59657043 -1.1035757 1.1346732 -0.87444466 -0.33895034 0.15225862 0.83758146 0.56594396 -0.5808681 -0.67386454 -0.08404909 0.95245683 -0.42254636 -1.5189645 0.22531833 -0.70498586 -0.8409524 0.48225576 -0.87558234 0.6015033 1.7561939 -0.65463275 -0.57950366 -1.583239 -0.45669734 0.5775146 0.49635175 -0.19273762 -0.5270516 0.09872313 0.032920375 1.3134984 -0.7739217 0.5514923 -0.7935444 -1.6482137 -0.907194 0.16581924 0.6899238 -0.026040105 0.43959832 1.1652675 -0.0978864 0.111701265 -0.29134127 0.6693832 -1.4916457 1.0031997 1.1568437 0.12609811 -0.100605674 0.08939943 0.029891895 0.95462567 -0.2558535 0.05404771 0.5391237 0.4803394 -0.7338487 0.97943753 -0.19986035 -0.76999724 1.1042699 0.43022668 1.0630481 0.64277554 -0.076925375 -0.44575506 -0.5513192 -0.11099194 -1.4282607 0.5136117 -0.019051649 -0.19816045 0.043068103 0.4346023 -0.11164445 -0.25800472 0.09698858 -0.19978443 0.19874935 -0.25832042 -0.955034 0.034133658 0.63842005 -0.30265966 -0.9554282 1.1171283 -1.8578577 0.74170095 0.7681179 -0.11935415 -1.7520374 -0.5572032 -0.85774964 0.6998087 -1.9798663 1.9454887 0.96401024 0.14748964 0.8826691 0.19955783 1.1684576 -0.7554892 0.32347685 0.76864904 0.038076326 -0.06633478 1.715551 -0.783833 0.4247741 0.8924081 0.78730464 0.33887658 -0.5162283 0.5400155 -0.68646246 0.121896476 -1.2385287 -0.7988127 -1.2857832 1.4845471 -1.63824 -1.1190833 -0.76457036 -1.6675351 0.059446614 1.4386935 2.1927328 1.306456 -1.7236576 0.47500357 -0.3521265 -0.99534595 -0.12222982 -0.13862388 0.86078054 0.04394346 0.4254124 0.5380736 -0.18912384 -1.6010045 -0.43506038 1.2450694 1.4207172 1.6456317 0.21191454 0.22624433 -0.9444801 0.057352047 -0.22363424 0.8760239 -0.37169066 1.1014012 -0.7931531 0.2316367 0.07870949 -0.7567633 0.4164784 0.37134284 0.07082172 -0.16392086 0.8907135 0.11858073 1.6372086 -0.18392766 -0.05756485 -1.1425747 0.3813145
好用 -0.4204676 0.04522911 0.7128807 -0.62285465 -0.82621783 1.0923306 -0.0869096 -0.42087853 -0.0776984 0.51253194 0.6282274 0.12464057 -1.1498759 -0.1009835 0.2730892 1.2299842 0.60118353 0.4908896 0.65322477 -0.16282973 -0.78430027 0.74470997 -0.5468082 -0.14227606 -0.43758005 0.74421 -0.9836869 0.3906539 0.5041142 0.137434 -0.025272164 0.5696788 1.5734634 -0.48779094 0.19168004 0.55926853 -0.23678754 0.4638701 -0.34371603 0.15057331 0.02875986 0.41841337 -0.46375722 -0.4823783 -0.392242 0.4122897 1.1671565 0.00091924967 0.40393543 0.5311539 0.46192518 0.79802406 -2.3810985 0.23758374 -2.1452034 0.025769465 1.7555584 -1.3401529 1.4183841 0.45009553 -0.2652551 -0.3419895 0.16914743 0.60215765 0.011130008 0.69820976 0.7459798 -0.7011669 0.2379711 -1.5560532 -0.62287813 1.2278191 -0.21447402 -0.920064 0.45225203 -0.23330271 1.2063603 -0.26431036 0.34152296 0.5905426 0.80679774 0.76967514 0.69979423 1.010719 0.1339036 0.09255128 0.6506239 0.5369281 -0.055821992 -0.56874704 1.0096314 -0.73157275 -1.773521 -1.2766231 -0.5495882 0.42534527 -1.0269486 1.2672931 0.1561944 0.1986569 0.37235323 -0.34303406 0.7343135 0.2687939 -1.1246084 0.21722844 0.09444969 -0.9611194 0.24415961 0.040799987 -0.16331945 0.9281728 -1.3038967 -0.83239925 -0.39785975 0.75721794 -0.7792428 0.66565466 -1.9034477 0.55881476 -0.98593265 0.34514257 0.5828462 1.2484188 0.4390031 -0.67329437 -0.99092245 -0.32027203 -0.36455372 0.33043838 -1.2749138 0.3015773 0.1371854 1.2173845 -0.92175436 -0.24125643 -0.9988683 -0.947244 -1.115587 0.3256988 -0.16863833 0.35392794 -1.605635 -1.4239402 -0.25592345 0.47541422 0.3509365 -0.5822266 0.58463717 -2.0206454 0.17039764 -0.048373636 0.3288915 0.37277737 0.5971141 1.2998348 -0.8713032 0.33302167 0.17615154 -1.4430741 -0.10592378 -1.514194 0.57148623 -0.15471244 -0.2355404 0.5412952 0.13968834 -0.76538956 -0.9940244 1.1081659 0.0042713485 -0.4592201 -0.5713222 0.8506643 -0.443838 1.0971265 0.42433423 -0.61071086 -0.36815894 -0.83913183 -0.36293247 0.5537618 -0.6319945 0.37925303 -1.3300974 0.6694553 -0.46658278 -0.34351417 -0.6177856 -1.8139867 -0.39245075 -0.6901643 0.9508535 2.3000286 -0.72088426 0.4925716 -0.89600146 0.6221531 0.6260943 -0.6023005 -0.27529702 -1.4504772 0.15781654 -1.589204 -0.2029022 1.360455 -0.7796547 0.43349674 -0.50831205 -0.48354903 -1.3382674 -0.49251628 1.5412228 -0.10855609 0.48674807 -1.1901494 0.04933795 2.1932423 -0.5545232 -0.11932216 0.6739243 -0.28413302 0.13610713 -0.7087346 -0.1007725 0.18898645 -1.7591528 -1.7697663 0.4455853 -0.45005977 0.32264256 -1.8366458 -0.3714379 -0.56334937 0.8018878 1.047091 -0.50013393 -0.34037694 -0.31448945 0.42096552 -0.67429423 0.2585115 1.168756 0.32274112 -0.26492995 0.6160404 -0.51475346 0.34760112 -1.1219667 -0.09783652 -0.62926567 -1.2245456 0.6059259 -0.00092171365 1.341159 -0.6477735
么 0.4861618 1.4657364 -1.5035913 -0.34711456 2.2901204 0.14833385 -1.1302712 -0.60458237 0.5906686 -0.57684404 -0.3910239 0.72427076 0.80051994 0.6114432 1.322611 -1.3030633 0.18561769 -1.4358357 -0.72020966 0.36641786 0.5941772 -1.7299196 -1.637224 -0.17369248 -0.8782321 -0.52435386 1.785839 -0.3178836 -0.51892704 1.216835 0.44686273 -0.9674643 -0.70547575 1.0642573 -0.6098962 -0.7775869 -0.38484758 1.1859217 0.50988054 0.5678913 -1.0176268 -0.2708715 0.6861864 0.88422984 0.12778121 1.0657326 -0.44843936 0.47782826 0.038843688 0.52988875 -0.7025915 -0.533455 0.17138012 0.10582581 0.7680483 0.2144756 -2.4285493 1.614091 -0.8592462 0.4509691 0.13827793 0.894099 0.51542914 -0.50967723 0.39586133 -0.88605964 -0.56388605 -0.25282028 -1.2293699 -0.021455966 0.67041 0.068829775 0.19246835 1.3204418 -0.08142064 2.0655544 -0.4359374 0.3860674 -1.0495639 -1.6450535 0.89275813 -0.14367417 0.4690004 -0.9714719 -0.26397854 -0.021681633 -0.069858536 -0.9788049 1.4067898 -0.7132325 -0.81834906 1.3069801 1.3542383 0.12369056 0.21638483 0.58630157 1.252297 -1.806976 -1.9307247 0.33813187 1.0420947 -0.03988847 0.08515424 0.22226037 -0.17155008 0.98123705 -0.24240804 -1.0549529 1.0175328 -0.2141634 1.7916969 -0.6012368 0.5627666 0.093753666 0.49428284 -0.38784268 0.60485643 -1.1234547 -0.19283305 0.61231697 -0.19849922 0.702062 0.59989697 -0.6624085 -0.44626415 0.34038946 0.26345176 0.07976307 -0.6591768 -0.40699017 0.8523931 -0.016433902 -0.7192903 -0.75984013 -0.83656144 -0.7754256 0.21957998 1.0874817 0.5348916 -0.30309457 -1.7765169 0.063242525 1.1117483 0.62202305 -0.04356389 0.00949924 -1.3618596 1.3277738 -0.40293518 0.5409208 -0.08265598 -1.0894253 -1.1612153 -0.42491397 0.072771035 -0.0984362 0.0129566565 1.0350157 0.2995342 1.2161719 -0.81861377 1.5779235 -1.2382615 0.11203782 0.73064727 -0.6721114 -0.28242025 1.1084148 1.5302463 -0.07479419 -0.5745013 0.18465936 -0.4159033 -0.030916767 0.26801527 0.8775666 -1.0564481 -0.2582788 0.5977522 1.7759243 1.0677096 -0.15487732 -0.33201033 1.6304274 -0.6445377 -0.95108986 0.02307804 0.036816157 0.67170787 0.46259066 1.4970386 -0.22821371 -0.97079617 -1.9832717 0.15091965 -2.0104394 1.1781203 -0.90952665 -1.2817637 -0.76894 0.43753365 1.3182379 -0.9114812 1.8413872 -0.27826935 0.38406172 0.71497077 0.72704893 -0.72586423 1.8493034 2.2090642 0.9914075 0.8766451 0.5820799 -1.6474719 -0.8608924 -0.8382011 0.062051598 0.04726494 0.9086328 0.10625552 0.45130754 -0.43810746 0.32582805 -0.54331905 0.20573044 1.3283566 1.2634404 1.0369023 1.2160397 -1.6915194 -0.10868019 -1.4877754 0.15590188 -0.7769719 -0.38796723 -0.2795846 1.1016843 0.25423953 0.61612195 -0.6370547 0.046212923 -1.1384563 -0.9480294 0.642721 -0.6255292 0.6072575 -0.13882111 1.608719 -1.2953026 0.536639 -0.40870997 -0.5687815 -0.30393317 -0.023890613 -0.047103323
三星 -0.5373022 -0.33355844 0.18237697 1.3881522 -0.212708 -0.039132833 0.02177225 0.4512161 -0.44779792 -0.16589673 0.3102898 -0.43138677 0.02844167 -0.31173202 -1.0331551 0.17846587 -1.0735862 -0.5082079 0.18120624 -0.19474249 -0.18715255 0.889955 0.40624484 -0.1041665 0.86968344 0.15948075 -0.10057746 -0.03479888 -0.2582303 -0.94838566 0.21994203 0.7422594 -0.48152632 -0.45091906 -0.8259832 -1.4118866 0.6881876 -0.32537535 -0.42063046 -0.57251924 0.6150597 -0.34152308 0.92318285 0.28605774 -0.33973232 -0.58197004 0.39866325 0.29557028 -0.66815937 0.46107718 0.11123894 0.096796185 1.1512086 -0.1691719 -0.00064197334 0.38227615 0.87894726 -0.3885113 -0.056992266 -1.2178499 0.5098046 -0.2398695 0.19738485 -0.013519462 -0.29375145 0.101780854 0.34324804 -0.61316836 0.026695658 0.6967045 0.0018552899 -0.10966453 -1.0644863 0.35730714 0.11796225 0.24556461 -0.05481885 -0.3082163 -0.30648175 -0.86905557 0.05001208 0.21805353 -0.047378957 0.21131168 0.22873545 -0.5172075 -0.52995116 -0.16824447 -0.30630052 -0.030205337 0.9835078 -0.26358825 0.05097862 0.22842659 -0.15604348 -0.36979356 0.48239708 0.744873 0.5339131 0.019228863 0.38705015 0.09221235 -0.012774327 0.17256838 0.89318675 -0.36064422 -0.43660468 0.041244578 -0.61204195 0.7006533 0.00046841407 0.14079063 0.2588016 0.22863978 0.21066946 0.017896598 0.35219488 0.33044133 0.8844745 -0.4614606 0.52186304 0.19966906 0.5364999 0.38643467 -0.044560578 -0.3915604 0.85797983 -0.19328845 0.17281832 0.2783262 0.33217892 -0.20739119 -0.22326058 0.8158413 0.6599177 -0.15421633 0.70732516 -0.05298389 0.47841018 -0.18077646 0.98417103 0.028958516 0.5679868 0.08346147 -0.24258591 0.36692935 -0.017619459 -0.6901915 0.699419 -0.07938054 -0.49097508 -0.018190483 0.024697447 0.42409012 -0.064355 -0.50924784 0.870294 0.17891696 -1.1601511 0.075753845 1.2503074 -0.28451008 0.28365162 0.106226735 -0.30419707 0.05569242 0.36269316 -0.45891073 -0.5958511 -0.15735611 0.46155295 -0.28322163 1.1083963 -0.06988126 -0.9953709 0.04681326 -0.14875148 -0.03579835 -0.21292028 0.7693261 -0.13550283 0.20924385 -0.00043259404 -0.07178503 0.0044653006 -0.49572152 0.024374519 -0.75478846 -0.6096527 0.32107067 -0.3034633 0.35428092 -0.7266593 -0.35285562 0.44374412 -0.4188257 0.3848811 -0.10539813 -0.16862214 0.30179283 -0.60995084 0.37373126 0.28322062 0.47269964 0.35135272 -0.6820199 0.8178917 0.014196296 -0.33664072 0.28153434 0.3447511 0.2512183 -0.8824026 -0.5496198 -0.2831096 -0.22418694 -0.5112968 -0.46962225 0.1447517 -0.25396124 0.2924022 -0.1365656 0.3522915 -0.4157932 0.5316556 -0.7828037 -0.12754709 0.70993817 0.21570885 -0.3859238 0.43497175 0.2536774 -0.037818298 0.15583633 -0.089930065 0.3874821 0.5589859 -0.85749483 -1.044029 -0.6318003 -0.025008598 0.710341 -0.16067123 0.43176106 0.48992458 -0.36589065 -0.24129437 -0.21276802 -0.33480316 0.49827608 0.34020683 -0.101389594 0.1414037 0.43919492 -0.053344533 0.2817845
诺基亚 -0.69022506 0.18118171 0.06067191 1.0731951 -0.074085906 -0.118191615 0.18512754 0.7407288 -0.17097862 -0.0781328 0.18393315 -0.5096884 -0.20487218 -0.11826042 -1.1954726 0.2484275 -1.2625765 -0.5530849 0.15770395 -0.46344474 -0.17644174 0.5354812 0.5417483 0.11860656 0.52836055 0.20042922 -0.3634934 -0.012744936 -0.30318952 -0.5497134 0.4270441 0.42533734 -0.5817823 -0.4775806 -1.1100225 -1.6918631 0.6596007 -0.2668056 -0.18718944 -0.452845 0.5194713 -0.1936363 0.53186405 -0.13593158 -0.29284954 -0.9637937 0.25049147 -0.09431957 -0.6150424 0.7064669 0.14326538 -0.1135884 0.8308919 -0.3623677 0.055960834 0.4045254 0.9147316 -0.047905225 0.1514018 -1.4500321 0.41805422 -0.25140983 0.2977093 -0.15209809 -0.20696159 -0.0011159134 0.24852738 -0.73536617 -0.004738741 0.94486386 -0.1544392 -0.06469891 -0.77505094 0.22180343 0.2029071 0.22312047 -0.3361835 -0.26104102 -0.031403948 -0.4585029 0.12929153 0.32414314 0.3511838 0.1871002 0.34034494 -0.22164051 -0.19313993 -0.3432181 -0.4415307 0.22509962 0.45869374 -0.33957338 0.31610245 0.3394752 -0.13401046 -0.507088 0.20071244 0.67979866 0.95344526 -0.37451568 -0.005095872 0.28132698 -0.1424585 0.37796697 0.6536052 -0.42332286 -0.3831361 0.19864206 -0.56621104 0.68067497 0.28130475 0.22942117 0.22143117 0.27602 0.26089266 0.07355926 -0.04047881 0.54377484 0.5728838 -0.48817003 0.77443254 -0.29670408 0.37066028 0.09543002 -0.23595506 -0.24324463 1.0188416 0.04196097 -0.20189239 0.032576047 0.2886572 0.090514466 -0.06810291 0.8007337 0.6330099 0.10929606 0.78466344 -0.22919199 0.55046815 -0.290209 1.0546769 -0.13970701 0.60222083 0.22894777 -0.31952873 0.25686374 0.27742106 -0.5797295 0.49776897 0.32264775 -0.61138314 0.23497379 0.3559163 0.20283459 -0.30399373 -0.54586774 0.88893646 0.06415632 -0.90607655 0.32363424 0.83675975 -0.08019737 0.13372764 0.13730298 -0.26221177 -0.028277513 0.4509415 -0.32450563 -0.29598874 -0.23750201 0.59117454 -0.3014265 0.9149995 0.14045705 -0.9480272 0.009794947 -0.1512012 0.12020647 -0.17439343 0.9671376 -0.15069534 0.64223075 0.37403783 0.024395507 -0.0317674 -0.5535101 0.44770765 -0.6840894 -0.37048844 -0.17322484 -0.3381594 0.42831165 -0.7167671 -0.16821383 0.67521954 -0.20434289 0.5969874 -0.045246065 -0.42862207 0.24552043 -0.6290858 0.53154904 0.26378384 0.33038625 0.3899401 -0.56107134 0.7949567 0.18030219 -0.1969106 0.28388616 0.29234192 0.3497148 -0.80512804 -0.6324158 -0.16915202 -0.24883549 -0.5387982 -0.6828743 -0.011977527 -0.42336065 0.21025422 -0.11314245 0.26165876 -0.53858566 0.5580108 -0.65651464 0.083482124 0.696321 0.21427795 -0.15633959 0.39424884 0.6431676 0.13549651 -0.118558794 0.05406819 0.35999474 0.8530101 -0.32372853 -0.7780399 -0.7293233 -0.050716866 0.84301215 -0.35078776 0.52212673 0.35503986 -0.6542219 -0.19825223 -0.20297475 -0.35136312 0.6444324 -0.03384554 0.105265744 0.09471269 0.27259222 -0.39462772 -0.10504145
小米 -0.61873287 0.10576386 0.5376019 1.2544646 -0.33200473 -0.22279526 -0.03364811 0.5879872 -0.13461037 -0.15434177 -0.09702849 -0.45653757 -0.5526165 -0.32602403 -1.2257013 0.08550987 -0.84191746 -0.30891013 0.14793687 -0.4300021 -0.11688474 0.5979186 0.42823666 0.20242177 1.0321741 0.57921374 0.022960303 0.0747793 -0.18568245 -0.5824284 0.5369929 0.7520609 -0.44526568 -0.42814317 -0.88470864 -1.4605812 0.5734765 -0.5421466 -0.18504225 -0.49373206 0.6289627 -0.38473618 0.8214284 0.084470086 -0.3471296 -0.89890563 0.13301656 0.14186369 -0.6234647 0.6020255 0.0843403 0.044879485 0.86005795 -0.2571987 0.10870023 0.19975065 0.865648 -0.39719307 0.1019929 -1.2147089 0.72072834 -0.22609486 -0.004023146 -0.3627289 0.038585488 -0.008591133 0.66055465 -0.46120533 0.2007817 0.7378085 -0.24760157 -0.28211793 -0.64997244 0.34104735 0.00040228615 0.48009798 0.14669338 -0.14910586 -0.040000245 -0.7880914 0.3807797 0.06798203 0.04912919 0.25598022 0.15177672 -0.44985035 -0.45687017 -0.21347798 -0.26091325 -0.23400071 0.5125207 -0.22903532 0.29289925 0.21275572 0.015521784 -0.32534418 0.29823717 0.63558865 0.8341424 -0.14972904 0.093492985 0.27344504 -0.124116115 0.22041768 0.89746004 -0.34233224 -0.42583135 0.1131292 -0.6569769 0.7986134 0.3185624 0.0033092878 0.11467627 0.2701668 0.13548577 0.044784267 -0.20526405 0.14953618 0.7645396 -0.28810382 0.64897835 0.056658912 0.49435028 0.31246036 -0.034921233 -0.1800092 0.68485737 -0.45796135 0.21029514 0.115404435 0.085686326 0.006571673 -0.103533186 1.0846659 0.6401239 -0.18357292 0.5446024 -0.4915065 0.066859245 -0.11653252 1.0191505 -0.05539979 0.56425697 0.27565968 -0.21770662 0.20081976 -0.0040762983 -0.5920921 0.71920544 0.5247654 -0.5219979 0.1427109 0.25765932 0.2045261 -0.12908319 -0.6767296 0.87878096 0.022928135 -0.77667695 0.47970638 1.1008661 -0.03898918 0.19369037 0.31400195 -0.08292358 -0.07536906 0.23584004 -0.64687335 -0.2634008 -0.2111304 0.57578117 -0.3941314 0.9072032 -0.007842918 -0.65692365 -0.24996132 0.015711281 0.36471242 -0.2637555 1.0506798 -0.11264929 0.8038624 0.18079492 0.22620252 0.05612304 -0.56150687 0.20670688 -0.37387168 -0.29865992 0.4193412 -0.09398216 0.5272881 -0.7483893 -0.40370068 0.66254985 -0.10764875 0.84965974 -0.43132153 -0.46556836 0.5120508 -0.33656463 0.72828263 0.35645106 0.7049257 0.59826636 -0.784295 0.559844 0.4042911 -0.3358706 0.31215703 0.34294063 0.14436528 -0.76117945 -0.28751352 -0.18414363 -0.03328138 -0.45686477 -0.74806637 0.24630927 -0.38858375 0.37290442 -0.07793053 0.5056371 -0.4749336 0.39448854 -1.0536765 -0.10130688 0.62453675 0.023792513 -0.31941864 0.040368084 0.16513574 0.14369497 0.14479148 -0.1501397 -0.03889393 0.7465721 -0.5925212 -0.7234385 -0.55607444 -0.041228075 0.4160543 -0.16500904 0.36175376 0.46282113 -0.5319895 -0.4639424 -0.11097984 -0.18991573 0.5162356 0.008247171 0.05688614 0.10937891 0.3441181 -0.18224026 0.4475878
李彦宏 0.83235174 0.0009720494 0.4490153 -0.0069553684 0.5315754 0.5229295 0.588914 0.19751185 0.2144423 -1.2281276 -0.01819523 -0.7327483 1.5280049 0.17214726 -0.9252426 -0.4419222 0.12591998 -0.21056965 0.56159955 0.76170117 0.021320628 0.09550961 -0.33810037 -0.28234488 -0.18980843 -0.8206172 0.5640035 -0.23316625 0.25144538 0.26338634 -0.4422539 -0.33512965 -0.44364738 -0.67715806 -0.26337257 -0.056427117 -0.718342 -0.18118635 -0.25860944 -0.2076217 -0.39749318 0.7097753 -0.053671177 -0.5169864 -0.18375199 -0.75427103 -0.4951397 0.70966077 0.39844504 -0.18232113 -0.019582778 -0.24591537 -0.1132126 0.31964347 0.5283142 0.42572683 -0.72842705 0.441065 0.08165311 -0.2586748 0.40409708 0.4231598 -0.32624164 -0.0033337448 -0.3907912 -0.34362727 0.22582093 0.8498812 0.31261852 -0.016600577 0.1133341 -0.18041576 -0.27052346 0.28375164 -0.39003736 1.2482609 0.13162719 0.2573714 -0.047296524 0.16074315 -0.78393877 -0.65277207 0.20391108 -0.40120056 -0.7014095 0.9241517 -0.6673269 -0.6444217 -0.2917304 0.36172006 -0.6430732 -0.89967835 -0.6360148 -0.2670975 0.41491753 0.61701834 0.39793354 0.5872691 -0.2245245 0.50909096 0.5169146 0.21684797 0.32637578 -0.36339834 1.0836205 0.37559965 1.0871902 -0.038101703 0.21366255 -0.46468395 -1.1266361 0.32540938 0.8281083 0.69883156 0.45169035 -0.13166898 -0.15417586 -0.4216268 0.44134864 -1.0512707 -0.04207942 -0.020708682 -1.3667976 0.16267568 -0.30502176 -0.27140155 0.27974045 0.6423873 -0.64005274 -0.0964297 0.43281558 -0.36346716 -0.91755986 -0.23413986 -0.09023037 0.5469159 -0.6175166 0.7940882 -0.5012622 0.04273536 0.027067535 -0.364342 0.40175602 0.68459886 -0.33789358 0.5798514 0.84927976 0.17736879 0.49440342 -0.26184863 -0.24058829 -0.060794197 -0.26217267 0.67245525 -0.03466555 -0.8005714 0.6979154 0.44351846 -0.22360237 -0.74684113 0.33005282 -0.9277221 -0.30004397 -0.4222513 -0.5607218 -0.32086232 0.043421783 -0.032572288 0.40648052 0.05472988 -0.32944515 0.28116542 0.7362709 0.8317409 -0.13928975 0.9008928 -0.7364672 0.19220054 -0.64639634 -0.5028113 0.2562055 -0.23136862 -1.0526212 0.13363749 0.28212807 -0.30867097 -0.9978905 0.21058768 0.011409355 -0.3378065 -0.14587177 -0.5686783 0.39170307 0.0003973693 -0.3820795 -0.2254887 0.23083201 -0.02931483 -0.90726995 -0.4466542 0.19104044 0.5719569 -1.6126862 0.020825513 -0.505134 0.25587344 -0.12148167 -0.48588243 0.86998796 -0.27543673 0.75787973 -1.4803321 -0.8081924 0.24593304 -0.06737797 -1.1189368 0.47547725 -0.36525387 -0.79131806 0.16904464 0.15803145 0.25617036 -0.12919097 0.29364896 -0.60256886 -0.2658498 -0.5079477 0.2568566 0.8154617 0.4256662 -0.5666879 0.21245664 0.15097384 -0.24086143 0.057898503 0.54629624 -0.6922292 -0.4467245 -0.39800188 0.76844364 -0.13959435 0.27147692 0.1548899 0.115184896 -0.44951016 -0.29636112 -1.1534148 -0.34152567 0.42185566 -0.24610588 -0.08383742 0.57021075 0.0043003717 -0.025052188 -0.41329694 0.16495611
很 0.32813552 1.0392628 -0.15853877 -0.7129877 0.71693766 0.8522154 -0.84433305 1.4601341 0.06426721 0.40199816 -0.99902093 1.4969237 -1.1938063 0.69540894 0.55316347 0.83855486 -0.7151848 0.3551322 -2.1463366 -0.7910009 -0.40714213 -1.3100722 0.66640383 -1.4118756 -0.22575401 -0.24999031 0.0880923 0.3726552 0.33003625 -0.64377576 0.62152356 -0.6920946 -0.92769533 1.2293979 0.5857141 0.57718545 -0.70526195 0.24411762 0.3328076 0.3149943 -0.4468396 -1.3401685 -1.1848571 -0.5520785 -1.2691159 -0.109259084 0.633235 -0.76171625 -0.49658054 0.49157676 0.4463373 0.33009198 0.093072146 -0.616179 -0.013566521 -1.0367877 0.52059865 -0.045452166 -1.0233631 -0.75649154 -0.0942586 0.2569 0.4939948 -0.98896813 -0.4513708 0.43859828 0.13208793 -0.67338675 1.4976687 0.05018258 -0.56817317 1.3691784 0.9201691 0.5386925 -0.11402001 -0.78211164 -0.339595 -0.5257031 0.6674392 -1.232761 -0.5969913 -0.08819806 0.26837447 0.6777771 1.1965451 0.20890784 0.4470985 0.50018007 0.83846456 -0.55626214 -0.9862484 1.255886 -0.4980853 1.0374492 -0.6146519 -0.12989092 0.33164406 1.1809888 0.040598765 -0.3438628 0.8545091 -0.9481719 -0.25682694 -0.0632021 -1.3431352 -0.4618272 -0.835469 -0.68706053 -1.354654 0.30146196 1.541816 -0.88098323 0.37000147 -0.62513655 0.4561829 0.08890971 1.3195245 -0.033244807 -0.10692762 1.5888915 -0.5759334 0.9831542 0.3348527 -1.6062704 -0.30149585 0.08806918 0.64088666 -0.3671932 0.20950992 0.20950757 0.20534511 0.21225089 -0.59168935 -0.05301804 1.655138 -1.299437 -0.29191914 -1.2270771 0.3866222 0.13460144 -0.39075443 -1.6740874 0.23465703 -1.742779 0.28967392 -0.2097402 -1.6321787 -0.19637659 -0.22224504 -0.18015628 0.4481257 0.4900726 0.2694868 0.77852434 0.55242217 1.4216372 -0.3329827 0.57342255 0.25466597 -0.5288771 -0.24697404 0.9729782 0.17271683 0.48121247 -0.17409791 -0.33695555 0.07402928 0.24100849 0.76565397 -0.16746317 0.28318247 -0.5719782 -0.070958026 0.28450885 -0.83798635 -0.012598944 -0.32172546 0.28645292 0.18991913 -1.2015266 -0.35293 -1.012703 -1.7983028 -0.82855016 0.15334909 1.2143916 1.0041043 -0.5901554 -0.2080381 0.46759993 -0.79238176 -0.819673 -0.9581781 -0.43712085 0.6561766 0.14628653 -0.34785816 -0.74763685 1.0263171 0.85789204 -0.7867639 -0.43559617 0.38961446 -0.5252957 0.5624471 -0.45850542 -0.8088748 0.22814012 -0.077786036 0.64140975 0.52530044 1.215755 0.6988544 -0.5643848 -0.30085534 1.5103463 0.2440108 0.6204697 -0.23045838 -0.16510032 -0.6270338 -0.024756063 -0.21697445 -0.40342742 0.64571196 0.43036428 1.5123335 -1.1622951 -0.9733494 -0.584578 -0.6740155 0.21238968 0.6717113 0.7245577 -0.5313968 0.71583605 0.16481501 0.42924893 0.33560368 0.41527498 0.016947126 -0.24412218 -0.12362115 1.8522974 0.12768699 -0.28265768 -0.32595176 -0.92452776 -0.18917231 -0.97443265 0.79455566 0.17518663 0.38626605 -0.85577124 -0.35207412 -0.29551026
牛逼 -1.2966135 -1.1272111 -0.34836873 0.5065926 -1.0805079 -1.2779038 0.21745305 -1.7669574 -0.52403456 0.9849124 0.95901 -0.33023807 -0.25495481 -0.99230933 0.06930421 -0.50972235 0.7927755 -0.017430527 1.5459468 -0.23278756 0.56261706 1.2162249 -0.4233172 1.5769433 0.70393735 0.99647564 -0.80170846 -0.34007448 -0.50046945 0.7552902 -0.10926976 1.0241276 1.3736271 -0.6330802 -0.3307182 -0.18060702 1.3129196 0.0175078 -0.097229086 -0.17284422 0.59684956 0.6458641 1.1407323 0.9017154 1.3195875 0.79405814 -0.26209706 -0.14984588 0.014803082 -0.407725 -0.41593978 -0.16500407 0.3164514 0.5640397 -0.65021956 0.67355245 0.34357312 -0.37058574 0.8319439 1.0012689 -0.34774897 -0.6305939 0.06307022 1.1423863 0.67998856 0.057529707 -0.032947518 0.17264764 -1.9444661 0.16363165 0.48657656 -1.0082282 -0.855255 -0.8010838 0.40021715 -0.092225455 0.36866745 0.14314924 -0.6780449 1.3230771 1.4048803 0.6837115 -0.50458485 -0.41076875 -0.44977835 -1.3989713 0.2885275 0.24075036 -0.43903008 0.23256369 1.6410917 -0.2967928 1.1193882 -0.92906594 0.4084495 -0.26204637 -0.7351935 -1.5912869 0.329819 -0.056151062 -1.2705702 0.8604923 -0.22133914 0.23847808 0.15968804 0.25914136 -0.39370665 0.94197375 1.1550485 0.28575513 -0.5965156 0.5784373 -0.8603025 -0.2306288 -0.7931884 0.14078674 -1.0659928 0.29058158 -0.2831065 -0.5691333 0.63378185 -1.2095225 0.7459596 1.3559881 0.44503033 -0.039796337 -0.81525385 -0.30153462 0.19040675 -0.33867407 -0.621529 0.056258507 1.3757039 0.16984434 -1.5686827 0.7415816 0.77352554 0.63117576 0.088284515 -0.020290796 0.5757598 1.9824675 -0.7071843 1.2236059 -0.0369087 -0.45807073 0.6919978 -0.23585275 -0.18806615 0.28943974 -0.17096393 -0.4145741 -0.50064445 -1.3268048 -0.6016886 -0.5118846 -0.21769519 -1.0787361 0.1689031 1.3383088 -0.261732 -0.38879827 0.2036902 -0.39001384 0.7266042 0.60443497 -0.13468486 -0.27943683 -1.009939 0.3140796 0.31172678 0.20928344 -0.35839325 -1.1704184 0.9346883 -0.87448114 1.3344717 -0.6807726 0.43051386 1.7363124 0.099918574 1.2164497 2.7463737 0.7031757 -0.44936877 -1.0911528 -0.07336788 0.2915306 0.43777654 -0.09988627 0.765941 1.3218454 0.31452045 0.4383278 -0.18410927 -0.116687365 0.1950576 0.65769714 -0.29164046 -0.2048557 0.5029025 0.09685842 1.1931523 0.6463807 0.03325881 0.27779517 1.1851654 0.45184103 -0.7007337 -0.5972837 -1.1742098 0.1368114 0.17587367 0.21389341 0.17009005 -0.5608316 -0.89972126 -0.08965644 0.9429951 -0.064839944 0.40605694 -0.1844631 0.005638308 0.08221002 -0.0009990518 0.009239157 -1.2627975 0.94621503 0.031216066 -0.009071746 0.90229666 -0.5627448 -0.5645759 -0.46211427 0.35050306 -1.2005634 0.51183414 -0.16197108 -0.0818221 -1.0394436 0.09233855 0.2821127 0.09424788 -2.119204 0.21181203 0.6176961 0.9310966 1.1623523 -0.062525354 1.1344304 -0.8967786 -0.7338937 -0.36371553 1.0325758 0.8253505 0.08061225
马云 1.1377001 0.05879341 0.43840867 0.07593489 0.26349413 0.31351686 0.7075698 0.4864175 0.40270758 -1.4117333 -0.122502744 -1.0439608 1.3130871 0.42356548 -0.74119073 -0.17594336 -0.097692795 -0.45149556 0.38429904 0.62121284 -0.34982863 0.29780918 -0.07821267 -0.21135813 -0.36322558 -0.7828265 0.57494885 -0.11055749 0.06350313 0.38371962 -0.44497627 -0.348626 -0.48012176 -0.55404365 -0.10069518 -0.05334606 -0.84867656 -0.27065188 -0.15544604 -0.18357354 -0.15483975 0.57396156 -0.20337516 -0.36822206 -0.21544753 -0.7433115 -0.49370217 0.69790566 0.4624826 -0.12695634 -0.056925196 -0.06312611 -0.49996695 0.1786224 0.6236116 0.28110465 -0.73526514 0.073696345 -0.065523244 -0.15088645 0.29181385 0.5343918 -0.6336819 -0.38095072 -0.22642559 -0.43708104 -0.25565603 0.7430083 0.58936876 -0.3689978 0.091405906 -0.20563138 -0.10585379 0.025452321 0.029850546 0.87929577 -0.055515427 0.5728071 0.18876739 -0.23953757 -0.8056356 -0.17996506 0.057108086 -0.11939422 -1.1495057 1.2394363 -0.5657938 -0.3322201 -0.32377756 0.36973873 -0.4107188 -1.1708488 -0.70684814 -0.11130616 0.24355938 0.48568252 0.42355502 0.5646299 -0.3656693 0.4252872 0.5826621 0.19164307 0.56259954 0.15727021 0.7938311 0.22031884 1.057602 -0.27532643 0.3082806 -0.34000468 -0.9682822 0.14364924 0.46289322 1.073667 0.26341268 0.12037864 0.072691135 -0.22028646 0.27871013 -0.9368665 -0.09928511 0.06690147 -0.7528905 0.43067038 -0.35539308 -0.355919 0.122697234 0.8341144 -0.39985487 -0.08267154 0.5386387 -0.24826007 -1.0832713 0.0039204145 -0.28370643 0.70334667 -0.41632888 0.5248995 -0.49411747 0.05050008 -0.10133615 -0.32793826 0.31062913 0.47255048 -0.46745592 0.5763919 0.51911944 0.43415087 0.25027388 -0.16158633 -0.22718178 0.3184741 0.2519974 0.55420816 0.030381724 -0.9631751 0.5604428 0.6541017 -0.6801521 -0.7611782 0.44034398 -0.61977875 -0.41634843 -0.14972267 -0.29495993 -0.02998046 -0.04732243 -0.11392133 0.31016728 -0.12155245 -0.68283725 0.39891243 0.50710166 0.8742493 0.06880354 0.9673974 -0.8044737 0.071675055 -0.3125966 -0.65257764 0.2967568 -0.18157366 -0.74188274 -0.06420647 0.20736852 -0.041065004 -0.9631922 -0.120264895 -0.18254222 -0.106925674 0.03974032 -0.41165975 0.5525074 0.1341428 -0.39954334 -0.14992367 0.01687145 0.074994504 -0.8747362 -0.6743386 0.16997716 0.3481546 -1.7544816 -0.17387018 -0.73467004 0.32226184 -0.25036657 -0.60548747 0.8126337 0.20490816 0.7015027 -1.3549505 -0.99241984 0.3675589 0.16298984 -0.98031837 0.48394534 -0.29892167 -0.65929306 0.28362057 0.16356625 0.1380999 0.22434615 0.035951614 -0.6738897 -0.41440874 -0.37546086 -0.14662349 0.86713094 0.4191044 -0.33899465 0.21494222 -0.07540009 -0.24425872 0.19981407 0.45294803 -0.8601971 -0.16281678 -0.13463664 0.38075212 0.02393188 -0.43727455 0.14100187 -0.03691314 -0.37195367 -0.42782846 -0.67010695 -0.20673144 0.36503762 -0.06760142 -0.14647163 0.5311901 -0.008199301 -0.2712321 -0.4937467 0.3289757
马化腾 0.8418982 0.130359 0.52085936 0.44854927 0.010348272 0.4028865 0.735825 0.18997447 0.2981408 -1.154756 0.25359848 -0.9622939 1.3665352 0.28699782 -0.8183011 -0.14683396 0.15712808 -0.32644144 0.52313024 1.1793884 -0.23170568 0.25917926 -0.2974208 -0.33369586 -0.75010484 -0.523949 0.61903304 0.05343677 -0.065089054 0.18782628 -0.25932142 -0.32655922 -0.35703215 -0.6073924 -0.3512044 -0.2606985 -0.60270035 -0.41214356 0.014621752 -0.073061846 -0.060623065 0.59856105 0.040024873 -0.6015668 -0.05944035 -0.46797335 -0.47410998 0.81886166 0.2388187 0.2864059 0.022837223 -0.17263915 -0.44229984 0.055246376 0.505286 0.13285907 -0.8047559 0.38125277 0.49565008 -0.051051214 0.3451011 0.19459094 -0.62323344 -0.0027098423 -0.3361107 -0.60223436 -0.14570002 0.47629425 0.64240605 -0.23304328 0.10907686 -0.38208005 0.12007747 0.26833874 -0.43801373 0.8993828 0.20783584 0.32842335 -0.10762659 -0.050947666 -0.94837785 -0.6609867 0.32254088 -0.074271165 -0.9548799 1.0946951 -0.6399998 -0.30932444 -0.41035223 0.56095773 -0.6800246 -1.0615883 -1.0013965 -0.056135923 0.12839642 0.44529933 0.41373217 0.233087 -0.33709538 0.47637904 0.30682144 0.23702815 0.5633388 -0.019607957 0.8503013 0.15583536 1.2787664 -0.23628739 0.36313322 -0.4106287 -0.90176654 0.51854134 0.3143493 0.6590096 0.27954897 -0.18589272 -0.15583587 0.010671755 0.32685143 -1.2876904 0.25997967 0.17211227 -0.98549914 -0.07966084 -0.19446297 -0.17130123 0.08410006 0.91800827 -0.5038119 -0.10874856 0.5880617 -0.51438665 -0.736271 -0.28027105 0.01205072 0.52503616 -0.57792985 0.7156251 -0.6817173 -0.03038899 -0.035668768 -0.5182631 0.51548845 0.53884476 -0.3241986 0.6655626 0.87237006 0.30850676 0.5607296 -0.18315598 0.02163288 -0.0645255 0.198639 0.7435363 0.09953946 -0.6581614 0.82338464 0.5621748 -0.23364569 -0.81479937 0.332023 -0.5274805 -0.5310662 -0.3016308 -0.38384902 -0.47801495 0.121465616 -0.07024257 0.5589495 0.038267907 -0.67261934 0.31143725 0.7436419 1.0663245 0.16653681 0.6414984 -0.68882626 0.20407957 -0.49068493 -0.5949895 0.0682282 -0.20787266 -1.1849095 0.13566767 0.50679624 -0.053388998 -0.8615795 0.32318145 0.030503739 -0.54929537 0.011302441 -0.3952949 0.50957996 0.08002021 -0.651157 0.05786641 0.08414254 0.18923898 -0.7638779 -0.40427652 0.20997539 0.15764242 -1.6443082 -0.064619824 -0.5169219 0.2062231 0.015715653 -0.422793 0.6291352 -0.06147064 0.56368375 -1.6018225 -1.089524 0.19911523 0.31252846 -1.0737902 0.8300155 -0.3074861 -0.5551335 0.10282943 -0.00432684 0.5451645 0.27582896 0.219233 -0.4302394 -0.45140556 -0.16772424 0.18633738 0.8985063 0.54264235 -0.3146285 0.39136514 -0.07185585 -0.24161105 0.01687646 0.3427296 -0.78039265 -0.16937593 -0.22913311 0.54381967 0.05610887 -0.084556274 0.28226763 0.26181176 -0.6084404 -0.44381073 -0.35952696 -0.07797996 -0.032164235 -0.27450612 0.08532401 0.6321011 -0.3272629 0.11237489 -0.4877654 0.09140965
中国 0.20517518 -0.05450611 -1.0713654 0.09464397 0.69629896 0.24011414 -0.34967288 -0.2887164 -0.6172621 -0.5471409 -0.48606902 -0.21818861 0.38772628 -0.033572633 -0.51559484 0.82224745 0.6331626 0.119850114 -0.5302988 1.0832015 -0.70995116 0.5588449 -0.3247157 -0.42603415 -0.21783185 0.048859008 -0.3521633 -0.41497403 -0.33929425 0.16873832 0.18668714 -0.5196418 0.19091716 0.3240691 0.4348966 0.0070126024 0.23747665 0.023552584 -0.49277672 0.43621877 0.96287555 -0.088395126 0.38551173 -0.21909635 -0.72741145 -0.43981257 -0.25973693 -0.20409463 -0.58288425 -0.06362601 0.052552875 0.053078257 0.3086231 -0.0417394 0.85822904 -0.22138673 0.26187852 -0.13509908 1.1375713 0.5280318 0.11757056 -0.3078098 0.47698742 0.32129455 -0.21451087 0.46584636 -0.5904198 -0.01839174 0.5823234 -0.014846843 0.7254351 0.20462836 -0.07263074 0.90591747 -1.1795981 0.070379086 -0.78882176 0.97574973 0.06957529 1.4500384 0.73643684 0.33086452 -0.9702688 0.56282467 -0.8793114 -0.5747172 0.48947665 -0.07025078 -0.28904426 0.18839826 0.5895526 -0.10311436 -0.30369863 0.8052332 0.28017747 -0.6502047 0.67525655 0.63820195 -0.07148009 0.6633192 0.6904335 0.18348853 -0.09360733 1.0098625 -0.12422842 0.5412977 0.12223543 0.34438613 -0.8041976 0.07882089 0.71832204 0.18329206 0.4785157 0.58801186 -0.075127274 -0.16694278 0.058896583 0.63290477 -0.11995814 -0.046060164 0.41567427 -0.29021144 -0.05677444 0.6100383 0.97555155 0.87855864 -0.48562935 0.054988194 -0.27560595 0.652357 0.15375394 0.14998175 -0.2822425 -0.0067964783 -0.15564334 -0.12767886 -0.23568651 0.24318394 -0.6537163 0.46713418 -0.5144574 -0.7677473 0.7194899 0.30694088 -0.3756562 0.025706384 0.2499866 0.4415306 0.63825864 0.7599625 0.0688035 0.082505636 0.8235937 0.018328797 -0.33219895 -0.13053645 -0.058325965 -0.19796531 -0.40501508 -0.74301314 0.49882078 0.3719684 0.014890815 -0.19987842 0.022489566 -0.59067774 0.59748733 0.8020061 0.22177728 -0.8963609 0.06359458 0.28805822 0.08873098 -0.6516607 -0.17956929 0.2143315 -0.15383653 -0.91509366 -0.042832125 0.13493045 -0.19103706 0.43146443 -0.07466437 0.47186252 -0.00063002505 -0.5787914 0.08863586 -0.51208466 -0.39657217 -0.35207364 0.56225646 -0.33615458 0.024556125 -0.16758238 0.11206161 0.7826012 0.58779323 0.5650266 0.055593096 -1.1723242 -0.2770929 0.29117107 0.17908248 -0.7349854 -0.13577405 -0.2951408 0.14793922 0.5737103 0.27708045 0.05391974 -0.06334536 -0.28431848 0.5582918 0.857742 1.2267977 -0.17941348 -0.71970314 0.053702183 -0.5359707 0.0403615 -0.3330982 0.2650814 -0.21703891 0.5217682 0.99536043 0.20696595 0.27602386 0.61296266 0.14617676 -0.7043802 -0.60378134 -1.0996113 0.35866317 0.12253648 0.50083715 0.51560265 0.052263882 0.8112287 0.08815757 -0.6315339 -0.26437107 0.016341368 0.94753605 -0.23370638 -0.09652291 0.19670421 -0.67783606 0.18661308 -0.31107038 -0.036254995 -0.17262736 -0.7771451 -0.3339589 -0.30552876 0.19692764 0.07073515
足球 0.08949939 0.5080984 0.5860436 0.5503383 -0.54636943 -0.012918343 1.1693896 0.5987805 0.30055633 -0.130342 0.37586161 0.22868288 -1.3254898 -0.7795854 -0.35596937 -0.3511133 -1.0186625 0.26767698 -0.29792807 -0.6504782 0.42693633 0.5255363 0.053655293 0.14235452 -0.1843271 0.32780117 0.34875223 0.87981105 0.26069605 -0.88606536 0.042092703 0.0509362 0.14677039 0.112930536 0.33548078 0.5100251 0.15397678 0.047889136 -0.68808126 0.4111266 0.04928987 0.30806 -0.34384134 0.14206408 -0.44027507 -0.028766245 0.9801717 -0.7394788 0.47948742 0.43575844 -0.45643306 0.3277679 0.123531625 -0.40347424 -0.57030576 0.7730432 -0.7318962 0.12367638 -0.0929007 -0.5262592 -0.20286596 0.6821158 0.6564705 -0.94317025 0.8720812 -0.05656408 -0.3869521 -0.5852033 0.0766907 -0.6714295 -0.3568427 0.44734648 0.32189763 -1.1676967 -0.26346108 -0.54349786 0.20305659 -0.6468603 0.47867873 0.3754068 -0.30202058 0.5176483 0.61724335 -0.12812993 -0.13056496 -0.22691654 -0.23421642 -0.09944649 0.59495693 -1.167094 -0.009827339 1.2821854 -0.4659498 -0.9742682 -0.6755883 0.74912167 -0.13967873 -0.47468096 -0.6949476 -0.48308197 -0.37275797 0.07881686 -0.5596692 -0.44742632 -1.0854695 -0.62942547 0.8952008 -0.28724822 0.13240306 -0.2897692 0.81566167 -0.40415117 0.5361712 0.04159462 -0.30142295 0.19491512 -0.098502964 -0.16517694 0.59486336 -0.19498847 0.30078828 -0.005599775 0.45005664 -0.67134446 0.52733815 -0.5861626 0.07561288 -0.57900923 0.8299964 -0.177284 0.17873397 -0.41526398 0.64063567 0.50392777 1.3179592 0.20859912 1.2989917 0.04653263 0.3103503 0.70002234 0.26789013 -0.50617886 -0.54522425 0.3531312 0.2022891 0.2135417 -0.7636039 -0.65591466 -0.428533 -0.12885177 -0.7390424 -0.32831556 -0.34930325 -0.66466385 0.3152056 -0.57111114 0.31579414 0.8651711 0.6892054 -0.6844683 -0.25345042 0.550966 0.3096103 0.92358434 0.046004303 -0.12458482 -0.4330997 -0.012301432 0.019620927 -0.0048392643 -0.46067923 -0.3904243 -0.62364966 -1.1848177 -0.2331705 -0.01021081 -0.37297592 0.0754141 0.26136222 0.45827818 0.02891149 0.6396017 0.3276738 -0.24146973 0.9228241 -0.14966445 0.17439888 -0.18741429 0.6090404 -0.022741979 0.16183765 0.087829165 -0.4760874 -0.1797183 0.76923335 -0.32466432 -0.09179219 0.5091348 0.41751537 0.061026253 -0.4360888 -0.7695288 0.014613996 -1.0944048 0.377298 -0.43499833 -0.57610756 -0.5201092 -0.7065047 -0.41638362 0.26018167 0.055518866 0.25938034 0.14159192 -0.7110579 -0.42085204 1.039582 0.23478098 0.67739105 0.1341545 0.5917567 -0.9075817 -0.68819153 -0.21669953 -0.6859843 -0.47590142 0.36074188 1.0986117 0.07270842 -0.49823818 0.40810344 1.3084697 -0.8719354 -0.9191315 -0.0672888 -0.2841606 0.76412463 0.31889898 -0.23035274 0.3958173 0.059530508 -0.5893581 0.115922414 -0.38588247 -0.06424927 0.6767051 -0.52725345 0.30271214 -0.69228184 -0.5990991 -0.24691759 -0.20501268 0.91261774 0.38516575 -0.85214037 -0.219594
不错 0.03916977 -0.58877164 0.42538172 -0.48311323 -0.21852113 -0.2657079 -0.683279 -0.4771921 0.35294238 1.1730487 0.12237309 0.12320698 0.61754274 0.7080962 0.78462285 -0.62847346 0.37796816 -0.70971656 0.8634904 -0.37888741 0.5658847 -0.878828 -0.031047072 0.049688123 0.14448069 -0.3992285 0.17446999 -0.5560416 0.081681654 0.7252744 -0.5238951 0.44652987 -0.34238917 -0.45172536 -0.6396599 -0.57063967 -0.3022287 -0.032211214 1.1966418 -0.7930042 -0.5106648 -0.26528868 0.05328325 0.17159747 1.003862 0.36622387 -0.6383011 1.224803 0.27132487 -0.51326776 0.1883228 -0.10883978 -0.5677258 0.22632962 -0.4787124 -0.68302476 0.32462382 -0.0019983866 -1.2301748 0.09651968 0.26357284 -0.10135415 -0.82307565 0.6069253 -0.41955787 -0.4682952 0.86196965 0.56857055 -0.82336795 0.85807234 -0.1687257 -0.40220076 -0.006769406 0.14162023 1.0223747 0.49539268 0.26030123 -0.26845497 -0.33095208 -1.8430021 -0.56049865 -0.94157624 0.6766183 -0.4848051 0.5628381 1.1518804 -0.32124257 -0.08989624 -0.4111171 1.2147206 -0.38319376 -0.966058 0.78673023 0.13421652 0.16164587 0.01807621 -0.30354503 -0.17720306 0.73303145 -0.43230513 -0.6387907 -0.423753 0.62429196 -0.27415818 0.97891355 -0.17645316 -0.8608862 -0.19134776 0.8098464 0.024511913 -1.4329243 0.22964923 -1.0211691 -0.7798021 0.13273989 -0.33585533 -0.12041037 -0.6770765 -0.57313734 0.41069305 -0.9228686 0.28986856 -0.37594867 0.07720517 -1.4057857 -0.34985355 0.30975738 0.34264 -0.5151663 -0.5251018 -0.51355624 0.16654752 -0.26832274 -0.21128048 -0.93749666 -0.19151288 -0.9756578 -0.3244022 0.3411874 -1.0339663 0.08298316 1.3527374 -0.25571826 -0.4786974 0.43493518 -0.31715924 0.4736604 0.38425487 -0.17562106 -0.55757296 0.34034646 0.27775607 -0.32532153 0.43652087 -0.12350119 0.5779336 -0.12126792 -0.65907866 -0.20664945 1.286202 -0.17679133 -0.90561306 -0.15190248 -0.3998497 -0.296134 0.849085 -0.5703014 -0.8543121 -0.22433797 0.726604 0.5053037 0.32568768 0.49189752 1.880121 0.46033716 0.008112532 0.22491631 1.0920233 -0.04469477 -0.6642678 0.17653543 -1.0970694 -0.3140471 -0.359675 -0.73576444 0.576431 -0.28726485 0.5477192 -0.2039949 0.15204887 -0.87980646 0.30035824 0.47073346 0.13123597 -0.70104045 -0.4395615 -0.34166792 -0.67600244 -0.3462229 1.1652105 0.5788625 0.2613024 -0.37967187 1.8680382 -0.47565985 0.49059588 0.26904 -0.27502257 0.5214467 0.37320974 -0.2520396 0.26193988 -0.73843384 -0.92148036 -0.5060127 0.3876723 0.045977704 -0.17842074 -0.06768835 -0.19744092 -0.29899776 0.50551575 1.0448656 -0.19030644 -0.57472605 0.2320899 -0.663414 -1.7200799 -0.14827153 1.1581255 -0.063823976 0.18083924 0.7634688 0.934696 -0.5193132 -0.11972845 -0.80131114 -1.1018656 0.29456615 0.2220625 0.30688548 0.75999796 -1.476027 0.54895943 0.20992848 -0.4252568 0.7484854 -0.47886762 1.0552965 0.5351486 0.25527892 0.67454404 -0.65429646 -0.24129139 0.8743701 0.3987624
篮球 -0.014212946 0.45340177 0.5023521 0.3798264 -0.6603007 0.2579158 1.0637366 0.34312662 0.27971062 -0.34158078 0.49012533 0.18560864 -1.3407027 -0.84002584 -0.48580188 0.05525404 -1.0815251 0.2586464 -0.3786718 -0.3304452 0.28971374 0.41442958 0.50456625 0.4225633 0.021859916 0.3781912 0.34171456 1.1945575 0.23207192 -1.3180842 0.14926836 0.19646527 0.43576473 0.065944515 0.26773995 0.535427 -0.007941751 -0.023337834 -0.8354848 0.3961839 -0.07170267 0.33372352 -0.5686035 -0.23822302 -0.42468134 0.016344247 1.0209697 -1.1620069 0.6697804 0.628483 -0.41918236 0.22664745 0.13020955 -0.46500796 -0.35958546 0.98496073 -0.7583229 -0.102569565 0.120247155 -0.382672 -0.23452295 0.41557577 0.32665747 -0.92067105 0.9083256 -0.20294195 -0.15514992 -0.6455986 0.26338047 -0.9405688 -0.55043834 0.29313603 0.20189367 -1.1183263 -0.41595662 -0.4343395 0.46641228 -0.86239505 0.38326794 0.3250163 -0.04668008 0.7271309 0.34653607 -0.2826164 0.40052634 -0.73291206 -0.24105003 -0.17170773 0.7269241 -1.5129906 -0.29492924 0.9453661 0.06931425 -0.73502046 -0.58139145 0.6711234 -0.19665465 -0.33095133 -0.8374219 -0.44265258 -0.45656475 0.28484058 -0.76932025 -0.70756346 -0.51279557 -0.39597237 0.8113074 -0.14482203 -0.18084547 -0.468558 0.5609592 -0.5986687 0.79407865 0.22216459 -0.23605531 0.5498105 -0.045213886 0.475272 0.5146771 -0.3614897 0.26446968 0.0775724 0.5712304 -0.65622747 0.6541084 -0.6523124 -0.020257453 -0.34122667 0.7042843 -0.14811312 0.24303956 0.002575967 0.5697008 0.18053313 1.1898344 0.30974743 1.2973628 0.059796773 0.22947644 0.6485126 0.26522204 -0.5111265 -0.5530157 0.33010727 0.24139589 0.21419233 -0.59906626 -0.45778927 -0.6145244 -0.15759352 -0.42955843 -0.48546425 -0.47267306 -0.4319507 0.2051294 -0.4441313 0.06365789 0.41067493 0.51524484 -0.27459466 -0.22588247 0.5565106 -0.09229861 0.52200675 -0.056513757 -0.26937917 -0.10859611 -0.13263927 0.07040077 0.15332921 -0.64895976 -0.68398726 -0.5037547 -1.1825817 -0.26749158 -0.42849585 -0.31406885 -0.2053132 0.21504235 0.807203 -0.26319075 0.48356915 0.3853246 -0.604358 0.6435289 -0.2326473 0.15539163 0.08006005 0.8539306 0.22821291 -0.020903416 0.22215843 -0.57571596 0.044966023 0.6589156 -0.44877225 -0.34443834 0.4713802 0.26773924 0.10003546 -0.4097965 -0.507277 0.29713237 -0.9229602 0.6571168 -0.1218068 -0.5955578 -0.5079369 -0.9889211 -0.38472006 0.1468516 -0.37185085 0.36174586 0.0015543562 -0.6513774 -0.42206305 0.88818026 0.078442685 0.51593906 0.14837927 0.899565 -0.69013333 -0.7727078 -0.3297917 -0.60675305 -0.3089302 0.16231465 1.0709294 -0.020741569 -0.25085717 0.6962977 0.9401593 -0.80755216 -0.8479308 -0.0330917 -0.22236963 0.83362424 0.11204818 -0.25876412 0.6138626 -0.0948032 -0.7033111 0.32338935 -0.41949832 0.12417858 0.26034588 -0.057674702 0.3005922 -0.9548001 -0.3327649 -0.038250107 -0.2830456 0.7705073 0.5080815 -1.1866975 -0.29118443
羽毛球 -0.23025325 0.69275403 0.44406506 0.31944317 -0.47103113 0.0287611 1.0204421 0.82013947 0.28135586 -0.8596352 0.3427357 0.19490893 -1.0608753 -0.7005515 -0.1355857 -0.58082926 -1.0268387 0.56654865 -0.054982647 -0.53777295 0.22017068 0.34751582 0.42108598 0.51025355 0.27077085 0.39971322 0.39765853 1.2260914 -0.031238463 -1.2652514 0.21997641 0.25561464 0.26130798 0.15877393 -0.003613995 0.41162348 -0.11772271 0.051536113 -0.91712165 0.63059753 -0.28440052 0.43577328 -0.08030121 -0.12056838 -0.20993449 -0.17942277 0.64025074 -1.3388646 0.68074375 0.4120712 0.1966157 -0.16898414 0.6389614 -0.3177907 -0.4304966 0.8063147 -0.25948107 0.017960133 0.09050974 -0.6330716 -0.48338622 0.14749666 0.43255526 -0.8564586 0.5032845 -0.087765366 -0.27305725 -0.589974 0.06267982 -0.81804794 -0.3084288 0.39201623 -0.10013081 -0.8037333 -0.30656207 -0.74660593 0.3887265 -0.45600474 0.42620695 0.43324962 -0.23231196 0.69790936 -0.112661205 0.21589221 0.2923553 -0.7360615 0.033068378 0.110418916 0.72065055 -1.4866678 -0.21175411 1.1071427 -0.4433473 -0.8841834 -0.386768 0.5958928 -0.08246101 -0.45861307 -0.5806068 -0.23133333 0.10087231 0.23366742 -0.505224 -0.6459396 -0.7034391 -0.25105047 0.63888806 0.09408657 -0.057286777 -0.15644625 0.7635823 -0.28486854 0.5893985 -0.05093006 0.11220812 0.48967296 0.04588033 0.14241433 0.5574317 -0.45983458 0.27645946 -0.2154318 0.499366 -0.41673473 0.6580649 -0.35338143 0.2901879 -0.49269426 0.8224737 0.15538125 0.4912212 -0.09411003 0.65682197 0.23937108 1.4011893 0.1048717 0.8756383 0.21768925 0.37165487 0.7483725 0.41023242 -0.8221658 -0.40358818 0.1364924 0.12813514 0.25163624 -0.60871994 -0.73606884 -0.32320076 0.040175054 -0.5884425 -0.44803122 -0.2667585 -0.88507694 0.48274526 -0.6753618 0.43940225 0.7682132 0.3606342 -0.46471873 -0.15771686 0.4893133 0.04332716 0.94360876 0.20666094 -0.38986272 0.018945344 0.2964006 0.11950167 0.14360878 -0.9232369 -0.4249393 -0.31149095 -0.97473824 -0.34697264 0.039289426 -0.3626778 -0.0016803971 0.1789676 0.55666834 -0.12362111 0.5401589 0.66487676 -0.050831217 0.37690917 -0.13582158 0.4991117 -0.06504521 0.63065815 0.16189107 0.20404613 -0.32851607 -0.3492299 0.21830553 0.47025236 -0.13511306 -0.5246197 0.28621903 0.2564379 -0.13924198 -0.15439887 -0.47179884 0.25315452 -1.2541094 0.43073997 -0.12371354 -0.79200417 -0.39584953 -0.463283 -0.6022906 0.3437773 0.09850052 0.52037084 0.12441707 -0.80935556 -0.40163857 0.6060463 0.087330334 0.33741555 0.26011124 0.5749599 -0.7514472 -0.95523506 -0.27754867 -0.3089862 -0.7534863 0.5684705 1.072712 0.06208917 -0.65873295 0.5720697 0.9312525 -0.99768144 -1.0339762 0.0016054601 -0.32387388 1.0189818 0.5169808 -0.32565555 0.29300097 0.07474952 -0.77720016 0.6698724 0.08770369 0.06338837 0.41161117 -0.24570614 0.40877256 -0.46250898 -0.6511946 -0.22785118 -0.12824038 1.3149428 0.6245821 -1.0059175 -0.5782585
美国 0.22108252 -0.06365324 -0.55199903 0.4921752 0.5238195 0.0021939557 -0.29237226 -0.19976601 -0.46568364 -0.71973175 -0.6587043 -0.37473217 0.42165166 -0.08426564 -0.5812987 1.0040278 0.2824024 0.107115 -0.61256963 0.62278867 -0.58156335 0.3619711 0.17823738 -0.19872765 -0.48250353 0.16071784 -0.32863516 -0.6161745 0.18669882 0.51562655 0.66835546 -0.7789427 0.0097478395 0.25369668 0.5524446 -0.16531825 0.660213 -0.16683337 -0.1637719 0.43404356 0.76853406 -0.21169892 0.3054939 -0.16639663 -0.7512257 -0.19600153 0.084397234 -0.18200006 -0.67391026 -0.11002009 -0.20024295 0.2015668 -0.10542399 0.2172048 0.8596712 -0.030463401 -0.15376146 0.28605536 1.0889654 0.7389568 0.25421575 0.03853797 0.32785484 -0.06691766 -0.013523096 0.39340365 -0.49600065 0.10253996 0.8658029 -0.24622005 0.37207466 -0.33911464 0.10404505 0.53565925 -0.45742685 0.36327383 -0.812523 0.6140345 -0.27000666 1.3444872 0.54411316 0.44512433 -0.5282987 0.13709499 -0.7670868 -0.7766273 0.3210702 0.06064131 -0.20449273 0.024491841 0.6592196 -0.10965045 -0.727345 0.5605747 0.079162955 -0.7892166 0.52273065 0.53580886 -0.09702911 0.6715988 0.44824606 0.15786128 -0.39130476 0.8870525 -0.026800407 0.4347827 0.2734573 0.2177843 -0.7815431 0.11579915 0.04635813 0.11227588 0.17059828 0.9170399 -0.2534271 -0.1949173 0.047199614 0.411488 0.3614546 0.3062886 0.77625275 -0.37357637 -0.3125369 0.46943656 0.5354499 0.71745855 -0.74917006 0.21391255 -0.20195642 0.7811738 0.43331856 0.08448383 -0.1228879 0.12640795 -0.48272124 0.01263349 -0.14496842 0.022436084 -0.4305428 0.18780905 -0.6904036 -0.35446262 0.4851551 0.15596542 -0.6596562 -0.049034465 0.034093123 0.5081059 0.39228633 0.61072016 0.24928884 -0.09147205 0.7601367 0.30869564 -0.28635794 -0.21906807 -0.42102957 -0.101904854 -0.1773021 -0.93245405 0.36412933 0.6173211 0.3502756 -0.5109433 0.1410044 -0.361291 0.4183584 0.6019096 0.06035565 -0.84568584 0.20021406 0.26670754 -0.11426152 -0.8867799 -0.255742 0.07717844 0.10376792 -1.0709504 -0.196846 0.05943422 0.02441248 0.47433534 -0.315306 0.455312 0.63117176 -0.50453246 -0.19836299 -0.19917771 -0.77974945 -0.12769619 0.77275515 0.14318039 -0.07774616 -0.53398573 0.21525775 0.51217103 0.76068604 0.3867837 0.07793653 -1.0767369 -0.4909925 0.4562757 0.16472925 -0.76610565 0.24485838 -0.33406806 0.6773456 0.88411516 -0.1460948 0.16032386 -0.21620876 -0.20636983 0.1584178 0.5730178 1.2785443 0.29444128 -0.7320081 0.24843788 -0.14798404 -0.43566918 -0.52528155 0.095727295 -0.06994556 0.48015916 1.0427543 0.39622578 0.41207212 0.69292736 0.098400906 -0.38677692 -0.12247007 -0.95400375 0.092506565 0.094096296 0.57948554 0.4417247 -0.014147326 0.47937372 -0.17558359 -0.7125421 -0.17346051 -0.035060134 0.88273 -0.4543865 -0.34774342 0.0041825296 -0.43791732 -0.15021509 -0.776375 0.1347187 0.10656718 -0.013447905 -0.59625345 -0.2080255 0.14321752 0.06491964
俄罗斯 0.2837986 -0.12241622 -0.49803743 0.3702685 0.94088835 0.046216924 -0.15227927 -0.20697136 -0.37561372 -0.62091345 -0.62452585 -0.6370345 0.63842577 -0.088729106 -0.43399933 1.3720632 0.64543337 0.27371094 -0.662233 0.93104666 -0.6856746 0.5879205 -0.37002632 -0.28011855 -0.2790037 -0.09225 -0.2915115 -0.5696318 0.08405221 0.3473097 0.499495 -0.4654666 -0.15025316 0.33447385 0.5357498 0.07803363 0.73826873 -0.10169726 0.027757367 -0.031284843 0.8843853 -0.036033504 0.042526033 0.2113925 -0.8518025 -0.028691527 0.06362396 0.19774443 -1.1029558 -0.06615543 -0.27237555 0.41442868 -0.2317013 0.31118366 1.064432 -0.027601292 0.08301769 0.24683729 1.3229523 0.5328119 0.028921872 -0.1376352 0.23363952 0.18690476 -0.097482234 0.6935609 -0.3630829 -0.071828976 0.7788031 -0.045808323 0.66571087 -0.082868695 -0.25502536 0.487071 -0.67286456 0.14292337 -0.55961466 0.58376825 -0.13648222 1.396662 0.8309288 0.36172295 -0.71952343 0.068466075 -0.6612772 -0.46224472 0.47410968 0.09632457 -0.3900961 0.2970019 0.7232132 0.1396533 -0.25198707 0.971528 -0.11785747 -1.1119603 0.22657317 0.31688288 -0.1186593 0.88729835 0.46381667 0.08905453 -0.08691244 0.9516829 0.08094066 0.79607797 0.18888314 -0.009327347 -0.79501617 0.10570879 0.6587302 0.06343094 0.062207814 0.9216874 -0.17860797 -0.093090825 0.23006001 0.45116633 0.10994326 0.016913544 0.86405575 -0.36564577 -0.25145873 0.42140627 0.69437945 0.6900719 -0.40468165 0.020497952 -0.6885291 0.39623615 -0.2857051 -0.05028235 -0.28567395 0.23264064 -0.17000055 0.038098447 0.17372155 0.17964956 -0.36639422 0.28970572 -0.29758736 -0.6226088 0.79956615 0.5228151 -0.52899027 0.15999119 0.28402963 0.12655288 0.41298765 0.62683207 0.48238817 0.23540255 0.6229966 0.5693403 -0.30720422 -0.012594589 -0.48787993 -0.014772155 -0.0792561 -1.078899 0.46757245 0.5343133 0.09794056 -0.45902836 0.2563238 -0.2623563 0.76021516 0.53134483 -0.1950203 -0.65198374 0.44721726 0.27539155 0.102896474 -0.8171118 -0.3021616 0.076683134 0.16185151 -1.0472894 -0.24010114 -0.013902752 0.04329374 0.4044237 -0.06372394 0.40086007 0.0380795 -0.71794313 -0.2417002 -0.20621647 -0.53390807 -0.114145756 1.0000219 -0.09675956 -0.082242936 -0.38079056 0.3930687 0.54390323 0.8774808 0.16492434 0.27895176 -0.7395002 -0.2517021 0.18460283 0.20845181 -0.99837244 -0.041203894 -0.05389448 0.6627663 0.81324327 0.1814952 0.43347654 -0.09414966 -0.15283611 0.32071716 0.8823182 1.1118975 0.19458279 -0.8121626 0.06199003 -0.7488635 -0.28961137 -0.17379731 0.07631955 -0.099968866 0.48470387 1.1824017 0.46318865 -0.06153916 1.0145614 0.06249359 -0.40874884 -0.4509922 -0.74600357 0.3603655 0.32072338 0.4403653 0.3965391 -0.18079536 0.62646264 0.015965832 -0.4525579 -0.16137701 -0.52111393 0.6471569 -0.39737016 -0.29564786 0.036340024 -0.5609425 -0.2789355 -0.7473449 0.3177866 -0.03756165 -0.48989207 -0.5584398 -0.29877368 0.033952404 0.2755685
英国 -0.025562344 0.077298604 -0.7105853 0.4898665 0.5811666 0.31046128 -0.22197011 -0.11583842 -0.49634704 -0.7266987 -0.48641512 -0.3584249 0.31889713 0.30018434 -0.61117154 0.98017424 0.34424084 0.23141463 -0.7509843 1.2645637 -0.68047905 0.45628333 -0.14942628 -0.41928315 -0.042575017 -0.081828915 -0.58852804 -0.5397987 0.28138548 0.305998 0.3174648 -0.659045 -0.003124437 0.2461956 0.63221484 -0.14578456 0.6200239 0.27854425 0.042041063 0.1958449 0.5875526 0.17613623 0.27337298 0.09370088 -0.66094273 0.004401148 -0.21902815 0.19251873 -0.92388254 -0.2094132 -0.43796596 0.2463401 -0.10461607 0.034234066 0.9972819 0.0644168 -0.17846894 0.12833409 1.1246084 0.54806286 0.4810286 -0.01441348 0.35633275 0.25743803 0.067679435 0.24866745 -0.86675394 -0.17693682 0.7692231 -0.3949815 0.42922932 0.08275584 0.14462581 0.5636167 -0.59474844 0.3939641 -0.4633737 0.5951061 -0.2925999 1.6281097 0.78455055 0.2806083 -0.738094 0.16875814 -0.78950727 -0.12964566 0.6116481 -0.11156654 -0.3912759 0.52489024 0.47251156 0.024610318 -0.19382915 0.39183128 0.053492926 -0.48425874 0.27629367 0.38493544 -0.31308421 1.0676194 0.77826136 -0.07007238 0.034022167 0.83182734 -0.33263943 0.4110701 0.110411614 0.13989496 -0.73047745 0.07209318 0.3479839 0.18535788 0.36965343 0.8653495 -0.20658071 -0.03468775 0.11571232 0.49276948 0.2414209 0.0047091832 0.74054766 -0.20937073 -0.12129568 0.49789652 0.64357483 0.7260038 -0.8117856 0.118798606 -0.6221205 0.2754153 0.1751245 -0.08244305 -0.113819115 0.01876957 -0.3602248 0.123652555 0.3086514 0.5854017 -0.2570504 0.21871188 -0.44054285 -0.78279644 0.73886925 0.16910997 -0.77249134 0.12044412 0.2005301 0.2970439 0.41015092 0.7919126 0.37919095 -0.3323903 0.58810616 0.09418565 -0.16996041 -0.10076155 -0.27816188 0.039132714 -0.29350823 -0.847356 0.3813853 0.4825537 0.1435753 -0.8009287 -0.24532701 -0.44413394 0.71249247 0.47043762 0.21389368 -1.0030673 0.31271017 -0.10363176 -0.008519534 -0.9060017 -0.30753085 -0.24425499 0.27314734 -0.9401601 -0.27979755 -0.20395829 0.25476772 0.60134417 -0.34643838 0.5655375 0.5787356 -0.40784287 -0.06248937 -0.26168588 -0.19491065 -0.57315 0.7948245 0.03850011 0.01886138 -0.3769285 0.18012685 0.7966132 0.6671407 -0.0055200947 0.29607698 -0.900117 -0.33636534 0.35284835 0.16190188 -0.7939214 0.010835928 -0.3059214 0.6937642 0.46540242 -0.21445522 0.17523307 -0.24566914 -0.049659733 0.20954193 1.0479442 1.1740685 0.3561286 -0.7523109 0.05719863 -0.22448596 0.080108695 -0.15058812 0.27816606 0.07721804 0.619277 0.9922097 0.4149301 0.026262004 0.7338986 0.04371181 -0.4624026 -0.5924692 -1.1178952 0.3317898 0.06420022 0.47885242 0.372114 -0.14063217 0.66951054 -0.08048539 -0.53903466 -0.15990433 -0.15197048 0.80227023 -0.43664706 -0.59933925 -0.2598872 -0.30385497 -0.0067971232 -0.80583066 -0.034755476 0.15303576 -0.44414565 -0.3940444 -0.678691 0.23836064 0.265266
