9 128
中国 -0.098742835 0.20227763 0.16856006 0.6563505 0.35597706 0.25318217 0.086628586 -0.4162805 -0.057626393 0.22772683 -1.1370938 -0.0475903 -0.29217702 0.7765741 0.30631515 -0.0035911256 0.2457742 0.28917903 0.34358266 0.18878995 -0.64032936 0.7595943 0.082878925 0.89272416 -1.2316157 -0.043969143 0.3272739 -0.4690693 0.19324975 -0.54136103 0.38598132 -0.70397925 0.145571 0.4100915 0.36837462 -0.051546335 0.4699214 0.18939906 0.025835665 -0.27951705 0.805201 0.6988733 -0.52144027 0.6088278 0.18739459 0.1397029 -0.49170458 -1.3316549 -0.29597595 -0.14164269 -0.36218745 0.27230957 -0.34769475 0.5689496 0.04149024 -0.21156044 0.56518114 -0.10638179 -1.4113817 -0.5108355 -0.028190723 0.016370509 -0.29561213 -0.9140741 -0.102248825 -0.73821354 -0.9469976 -0.21933077 1.0883386 0.64581263 0.3802654 0.12872176 -0.97266275 -0.18727367 -0.48258594 0.086769626 0.29701373 -0.71584105 -0.9185665 0.10002146 -0.24944805 0.5949672 0.75109774 0.4730176 -0.05829541 0.22565418 0.22349685 -0.24289125 0.26938483 0.49805206 -0.35732597 -0.4130837 0.5165538 0.11455249 0.8448774 -0.006710611 0.04966487 0.28988212 -0.37425795 -0.5921422 -0.058979824 -0.5824997 -0.09332628 -0.21575393 -0.09368644 0.34155482 -0.5604021 -0.45551446 -0.75580966 -0.7551631 0.41709054 0.2769363 0.4615392 0.1596187 -0.31322566 -0.20778267 -0.17839643 -0.12845919 -0.29284424 0.3143473 -0.2358914 -0.59809256 -0.004379287 -0.22741775 0.2964286 -0.31055233 0.034288045 -0.31156257
足球 0.6888678 0.28346056 -0.39488852 0.117636845 0.8259823 0.30905166 0.3350663 -0.43370453 0.0659037 -0.48036057 -0.36655316 0.33387977 0.2859167 -0.6236949 0.806288 0.7047352 -0.05084738 -0.13105343 -0.10208321 -0.9813267 0.7249098 -0.24853128 -0.029121444 -0.4644349 0.121222585 0.60187626 0.26949066 0.013592127 0.45905688 -0.36907622 -0.34709758 -0.22904782 -0.45623672 -0.16130695 0.016488096 -0.1781789 -0.8920154 -0.3760405 0.3127962 0.39767215 -0.1474217 -0.4720136 0.22172122 -0.059577174 -0.5058221 -0.49695855 0.42527032 1.0654387 0.35384274 0.39097703 1.2545708 -0.029081 -1.215618 -0.8543465 0.1431489 -0.5021797 -1.5864058 -0.91043234 0.2722666 -0.15063839 0.8822899 0.20761018 0.5937685 1.3683891 0.1868587 0.7300405 -0.05241128 1.0588702 -0.4517289 -0.6148149 0.509954 -0.09953951 -0.52491134 0.101758406 0.08898959 -0.21878715 -1.3041122 0.57601756 0.40568012 0.17409901 -0.62465906 -0.027421756 -0.6062646 -0.2360883 -0.45956758 0.5909918 -1.4629123 0.65383613 -0.22334103 0.72831947 -0.6768053 0.338908 -0.6754598 -0.0061630574 -0.52716124 0.27312148 0.74401337 -0.46959507 0.015756384 0.08802406 0.5559895 0.016117468 -0.13680063 -0.36144993 -0.42962083 -0.2477574 0.029353812 0.20019113 0.45144358 0.6832803 -0.713222 -0.052767232 -0.46346408 0.2035821 -0.28957888 -0.35996157 0.57810247 0.42309532 0.07115914 0.1238801 0.8125787 -0.13552886 0.3314859 0.21534598 0.50058 0.21011472 0.43770626 -0.27210477
不错 -0.3343209 -0.6407682 0.03327974 -0.98582864 -1.0143789 -0.5605384 -0.46018884 0.8780154 -0.1349006 0.41095543 1.2983146 -0.5822647 0.3544354 -0.19369322 -0.47144112 -0.46293318 0.3231784 0.060708214 -0.07736807 0.5957414 0.09573028 -0.5268177 -0.19955108 -0.7000103 0.8819654 -0.22998485 -0.22765678 0.72319674 -0.43962425 0.8674049 -0.19612421 0.6116891 0.0999184 -0.4188948 -0.28292242 0.4216033 0.020148769 0.38447863 -0.27865937 0.112656906 -0.48207775 -0.65230376 0.20939812 -0.7209779 -0.08953108 0.6479633 -0.11969475 -0.25609446 -0.2501746 -0.19484395 -0.9800192 -0.44965866 1.2344067 -0.1397225 0.11833671 0.65031135 0.82483065 0.5809939 1.3269233 0.36995554 -0.60604954 -0.6194034 -0.21478505 -0.5192675 0.20459902 -0.0016063834 0.69617397 -0.7952236 -0.63148814 0.037357952 -0.7237041 0.22703452 1.2377867 0.2901238 0.117775366 0.16939923 0.818873 0.026240628 0.5448044 -0.6623974 0.9005774 -0.4311299 -0.50127345 -0.17407514 0.65076846 -0.53975797 0.8267029 -0.7276896 -0.045648444 -1.2582716 0.71930736 -0.11195603 0.14071807 -0.15743433 -0.4277917 -0.36212426 -0.89252746 0.21837601 0.12365078 0.6491328 -0.59808356 0.68455404 0.2306977 0.471358 0.44753632 -0.40128815 0.1679934 -0.010372727 0.76671153 -0.009505615 0.27513194 -0.3246081 0.0871834 -0.14802872 0.5695751 0.61478466 -0.45379558 -0.7875351 0.51196057 -0.68454206 -0.9021384 0.6887886 0.015786812 0.03383428 -0.3171281 0.1648285 -0.5690496 0.46606347
篮球 0.21205534 0.33831674 -0.08935569 0.08077767 0.9010955 0.1214617 0.23182546 -0.46538028 0.33347747 -0.4839349 -0.1287116 0.43615103 0.07117218 -0.4101409 0.20135424 0.58047044 -0.9359545 -0.37864858 -0.6961217 -0.6903087 0.89706326 -0.3783062 -0.013983133 -0.17324317 0.575628 -0.020588461 -0.18458001 0.18360281 -0.05636839 -0.26324934 -0.3489199 -0.028135918 -0.40564257 -0.021931564 -0.27988118 0.13297382 -0.63321 -0.51190853 0.21095693 0.4729993 -0.10152337 -0.17039812 0.3921018 0.015201987 -0.2424831 -0.47809738 0.5424547 1.3134733 0.34185955 0.32592273 0.83641785 -0.086134635 -1.1709757 -0.7282261 -0.048840176 -0.85303074 -1.0292505 -0.42893636 -0.12991163 0.44688964 0.75524896 0.6430078 0.58557975 1.2725781 -0.14660998 0.8968912 0.5288763 1.039024 0.10909382 -0.8166283 0.40659738 -0.2480663 -0.59499604 -0.20541413 0.18015179 -0.10141868 -1.0145854 1.0740259 0.399497 0.11686223 -0.49040344 -0.21915726 -0.21928169 -0.037487775 -0.3079747 1.0277737 -1.214048 0.9476297 -0.14362887 1.0586951 -0.47437575 0.5993463 -0.62466955 -0.14356253 -0.37757024 0.02233665 0.88404685 -0.5164573 -0.12684518 0.09996624 0.32312542 -0.35366997 0.116313115 -0.42745727 -0.51935124 0.24185948 0.2800622 0.5612119 -0.32805967 0.92437494 -0.92414063 -0.6349409 -0.083722 0.19727674 -0.182051 -0.5692906 0.55060476 0.9014953 0.19499438 0.17029531 1.3006176 -0.321536 0.14462198 0.29343006 0.10557202 0.23084317 0.0038473888 -0.033627525
羽毛球 0.57718223 0.49448448 -0.43140164 0.05943363 0.56106156 0.3882662 0.46231052 -0.3259834 0.17177905 -0.16477239 -0.5345179 0.7309992 -0.32179216 -0.35611784 -0.019799465 0.46603563 -0.5744186 -0.45063633 0.3568779 -0.3331666 0.41383666 -0.4001356 -0.21321705 0.20709704 -0.15242791 0.41877002 -0.07776802 -0.35951227 0.32881784 -0.76118326 0.21165805 0.35154933 -0.26982045 0.10509587 0.31389326 0.13560167 -0.49955082 -0.6508116 0.38407272 0.18928209 -0.7873345 0.035823822 0.15760574 0.30941778 0.12799782 -0.94637847 0.3750266 1.1559129 0.3061439 0.45595336 1.0562857 -0.058120254 -0.5965887 -0.4779943 -0.46526727 -0.82211906 -1.0268583 -0.30895278 -0.008954848 0.088430285 0.6943814 0.51393783 0.51052016 1.021902 0.29502392 0.41661385 0.060381718 1.2047876 -0.11093724 -0.5529052 0.41320646 -0.3288946 -0.45027462 -0.1588393 0.24614576 -0.41419983 -1.253535 0.30631182 0.35206592 0.62435824 -0.92092204 -0.47299832 -0.066004455 -0.49468186 -0.083770335 0.5558484 -0.80250865 1.1545894 0.08736432 1.2163118 -0.87005675 -0.024317853 -0.80227643 -0.15265487 -0.04345875 0.12169007 1.0017555 -0.25001097 -0.025165737 -0.11315542 0.6045018 0.038353916 -0.15295647 -0.057968095 -0.7802312 0.4096607 0.5946644 0.63059527 -0.06512939 0.16278821 -0.45972955 0.22141524 -0.9246861 -0.1978806 -0.31766018 -0.55712885 0.66918695 0.6681411 -0.27563003 0.19754814 1.2574699 -0.2975397 -0.14500034 0.20732243 -0.21404628 -0.048147608 0.81232774 -0.16229941
美国 -0.19191362 0.47977582 0.788364 0.8565287 0.11031704 0.3197898 -0.20645367 -0.38705358 -0.34095064 -0.4063029 -0.7947092 0.06585575 -0.47839174 0.52749467 0.4363585 -0.37381682 -0.081789814 0.5389811 -0.59961796 -0.4125451 -0.6419603 1.1250789 0.7002941 0.6502224 -0.6088724 -0.15571502 0.3995206 -0.65058213 -0.002215067 -0.28108403 0.0022955548 -0.66848874 -0.066435695 0.2637043 0.035433523 -0.923711 0.6709534 -0.039394725 -0.31062928 -0.66262037 1.1754501 0.69021803 -0.32751653 0.58845663 -0.06990011 0.21218535 -0.06422641 -0.7876691 0.20547369 -0.3801733 0.025583833 0.86391276 -0.7840697 1.3553125 0.5205075 0.5338858 -0.15823643 0.13593207 -1.5250813 -0.34699562 -0.3609142 0.29424083 -0.2070237 -0.28831652 -0.7311563 -0.4270104 -0.97585624 -0.60582185 0.34653828 0.37139705 0.50527245 0.3523 -0.58834887 -0.61343396 -0.48514074 0.03543554 0.32590657 -0.52553827 -0.90580195 0.05642376 0.026119782 0.36554968 0.4649835 0.36634114 -0.85426533 -0.49159133 0.09493091 -0.054046955 -0.3769066 0.08151263 0.24148254 0.35512626 0.4638737 0.11940227 0.73740184 0.3178142 -0.088424504 0.06950939 -0.33739597 -0.69808584 0.036028873 -0.4353261 -0.33920768 -0.36139914 0.4824407 -0.108487085 -0.53883994 -0.3788892 -0.5746185 -0.3203827 0.016145376 0.27603957 0.6282126 0.07832396 -0.63558865 0.35462028 -0.30227178 0.40242878 -0.48791927 0.62155545 -0.11598639 -0.1404503 -0.22815202 -0.5796479 0.42647037 -0.31897718 0.16318119 -0.3101966
俄罗斯 -0.07319951 0.46318117 0.1631549 1.2396479 0.30969027 0.19177128 0.12799442 -0.6766817 -0.20024563 -0.09122551 -0.5296794 -0.13474672 -0.14105368 0.551244 0.53334236 -0.06019189 0.112813205 0.27163863 0.01846281 -0.101272635 -0.6250728 0.9458005 0.29339278 0.7649146 -0.71883833 0.26871368 -0.029987574 -0.5883586 0.12689607 -0.42227986 0.65987104 -0.77358687 0.3296963 0.58502096 0.035578523 -1.0043749 0.91106665 0.23546599 0.12159377 -0.31552655 0.85497445 0.8506698 -0.32901755 0.51043 0.21982211 0.09210976 -0.39593822 -0.5187602 0.21344388 -0.17824127 0.1502991 0.7585366 -0.48965654 1.20706 0.44240814 0.28511038 0.1601859 -0.20774451 -1.7636847 -0.29975742 0.18988043 0.6636134 -0.26999864 -0.2719833 -0.5646839 -0.36464396 -0.65365595 -0.45182192 0.65900373 0.92682976 0.088648096 -0.32675076 -0.18698356 -0.22272563 -0.31147662 0.06423183 0.055266783 -0.8183814 -1.1333907 -0.27624133 0.22911492 0.7456916 0.6757739 0.72220933 -0.37352282 -0.24416104 -0.11834279 -0.61597574 -0.07435153 -0.28499442 0.16455878 -0.28615907 0.7551513 0.48521882 0.45391566 0.2626381 -0.07314845 -0.39335972 0.5050199 -0.81530905 0.19760714 -0.74308777 -0.11148077 -0.606263 0.5971439 0.1200651 -0.7821579 -0.743728 -0.6354635 -0.25934437 0.22482495 0.11421333 0.8780403 0.21493325 -0.19858345 -0.07607674 -0.32687995 0.071264304 -0.20310116 0.13163048 -0.024530463 -0.3771429 -0.14601366 -0.32046792 0.42923138 0.3655775 -0.4698646 0.27062058
英国 -0.28193325 -0.012207124 0.46806836 1.0265512 0.20449351 0.20371425 -0.29888588 -0.16539615 0.39193118 -0.48543188 -0.5703975 0.12885241 0.07901359 0.47947997 0.40832072 0.24812849 0.45900086 0.33202586 -0.09563915 -0.34897453 -0.76870614 0.5964521 0.16495727 0.5922909 -1.0495242 -0.0997884 0.46958315 -0.6835359 0.024784656 -0.11614378 -0.0233365 -0.500474 0.07911471 0.2686577 -0.024254404 -0.86096483 0.756479 0.12295911 -0.19007288 -0.51759285 0.9721812 0.7781279 -0.40498412 0.6074502 0.0034801073 0.2730795 -0.34945214 -0.3944322 -0.19821678 -0.42149767 0.45294145 0.48848578 -0.46338534 0.9672929 0.2055113 0.03985625 0.23664732 0.34808323 -0.9333868 -0.5083561 0.11010815 -0.100915 -0.30367818 -0.1512588 -0.49854913 -0.6801067 -0.6323753 -0.46322164 0.78383493 0.56495804 0.3668249 0.2023552 -0.7075733 -0.042372108 -0.06381291 -0.0218435 0.7766527 -0.18490815 -0.73827124 0.37093964 0.21612763 1.2019176 0.5227998 0.7701814 -0.6355821 -0.43031207 0.29297513 -0.2679567 -0.26150954 0.15313494 0.68695784 0.52896124 0.5951385 0.50189036 0.6982858 0.36602926 -0.10159034 -0.26030836 0.7631304 -0.73880553 0.18385409 -0.72906363 -0.34317404 -0.38317513 0.42156357 -0.15652418 -0.63897395 -0.4245702 -0.71841717 -0.071388975 0.28234267 0.418099 0.6783058 -0.11047852 -0.15002696 -0.23680359 0.005884788 0.614394 -0.34924033 0.7051249 -0.4278593 -0.16386405 0.004057096 -0.43903902 0.015994074 -0.09663387 -0.16874187 -0.09629869
橄榄球 0.38472456 0.28807852 -0.59539145 0.28355226 1.0143965 0.27193105 0.94552606 -0.88443446 0.13751446 -0.28300148 -0.5146665 0.48583582 -0.094936 -0.46132305 -0.21522576 0.39951923 -0.472481 -0.5423075 0.17740142 -0.35427666 0.60108954 -0.10048092 0.14194821 -0.23249324 0.2929696 -0.023184622 -0.34103742 -0.019643856 0.5249462 -0.21198678 -0.15758665 -0.34884065 0.20084253 0.13253126 0.060940523 0.34063822 -0.84263176 -0.31492665 0.47107267 0.425499 -0.19745038 -0.02569926 0.21985416 -0.041076723 0.20054334 -1.0094904 0.6245234 1.059501 0.4126499 0.5974974 0.82879037 -0.1113233 -0.48104882 -1.3777453 -0.6356735 -0.6225222 -0.9724894 -1.1902418 0.109436676 -0.03332765 0.3765361 0.5040343 0.32207325 0.7002536 0.20236245 0.7393921 0.21323767 1.3297958 -0.24076211 -0.6975919 0.10959661 -0.6847349 -0.57988036 0.23717235 0.3815281 0.10645442 -1.1653285 0.6316625 0.3056683 0.9063708 -1.1969954 -0.049041294 0.1236954 -0.42084518 -0.34291202 0.8230807 -0.9624092 0.8427691 0.4336265 0.8432199 -0.972993 -0.05672039 -0.5270991 -0.002949765 -0.6622613 0.30285704 0.90875083 0.06270664 -0.42800412 0.23280878 0.5631927 -0.21690069 0.23263004 0.023570353 -0.7840721 0.48309174 0.44798478 0.28688467 -0.26422423 0.56002724 -0.37795392 0.119941205 -0.7233093 0.41448936 -0.062887795 -0.62969875 0.65667987 0.36695796 -0.32854643 0.38939747 0.96321875 -0.49863067 0.23392615 0.68835163 0.22085634 -0.106055625 0.69087636 -0.6472741
