9 128
中国 0.6025581 -0.41294765 -0.11532958 -0.5030009 0.37130344 0.1708852 0.9307915 0.28038 0.25987852 0.0969011 0.008139455 0.28521436 -0.07120404 0.07898006 0.15616633 0.16827454 -0.2490148 -0.004353511 0.46673974 0.7074149 0.08408433 -0.07102827 -0.13665669 0.3461519 0.006466429 -0.11144471 -0.17583306 0.04487621 -0.064772666 0.10223209 -0.02600787 0.31182998 -0.061014522 0.42222515 0.30698743 -0.47034952 0.05907482 -0.48727593 0.038418263 0.095400594 -0.02453306 -0.05637197 0.1540887 -0.02971541 0.3512863 0.54612523 -0.31568265 -0.102020636 0.075120874 0.10822747 -0.24141724 0.22138584 0.086662285 -0.23541953 0.2052943 0.25362965 0.26721108 0.11519089 0.105523504 0.034142368 0.059978757 0.24192914 0.2524346 0.02844806 0.10128393 0.18285044 0.118905075 -0.16009295 0.21029314 -0.0729332 -0.119366676 0.078209795 -0.025886511 0.24276604 0.3840783 0.31186247 0.21574046 0.119876996 0.2952625 -0.27067733 -0.03064571 -0.07125451 0.052509528 -0.6169659 -0.14280789 0.178736 0.11571712 -0.2338825 0.21979915 0.03686419 0.07153541 -0.046402488 -0.4168143 0.33726114 -0.06338046 0.1990313 -0.20006397 -0.5143764 0.20288624 0.14020458 0.20219156 0.06389635 -0.2200032 0.2702872 -0.03202894 -0.08155346 -0.03033822 0.10046918 -0.053852405 -0.15934657 0.177563 -0.16233964 0.19962877 -0.15736046 0.08095816 0.29129183 0.2648972 -0.032066427 0.24470441 -0.26062012 -0.10327633 -0.5746999 0.09564917 -0.20772356 -0.5395155 0.3989974 -0.38552836 0.11373233
足球 -0.23702541 -0.15567777 -0.1509046 -0.7733857 0.09127973 0.43684936 0.32364696 -0.3115175 0.55233634 -0.47188404 0.51419103 -0.19538999 0.12898903 -0.30208063 -0.17671874 0.042346198 -0.13551718 0.26450905 -0.8040831 -0.30611712 -0.17388177 0.032127738 -0.05472116 -0.60825866 0.42242053 0.20863986 -0.22572614 -0.27350357 -0.03057672 0.18456982 -0.05330788 0.21409044 0.11829924 0.1843126 0.50195944 -0.3887753 0.27738056 0.15227497 -0.3988916 -0.6034763 0.5777113 0.6056402 0.40547177 0.065410204 -0.23384374 -0.07287826 -0.05698781 0.7217662 -0.2766566 -0.60703456 0.006090371 -0.12307266 -0.22590764 0.112055354 -0.22643773 -0.20401113 0.14085542 0.043076932 0.38879082 0.0057874327 0.12354926 -0.07353995 -0.20440967 0.61963654 0.66038275 -0.010006612 0.68841314 -0.15251361 -0.13040848 -0.28237957 0.22034863 -0.13753918 -0.18501852 -0.103152 0.68032134 0.19941568 0.41316846 0.32828596 -0.09578291 -0.16201632 0.43331543 0.38937196 -0.020074476 0.05896684 -0.37056944 0.048341822 -0.2636881 0.2141719 0.27414978 -0.33871183 -0.20325361 0.1761581 -0.3519568 0.24592376 0.2943902 -0.043473624 -0.3018151 0.12620619 0.14689818 0.24035533 -0.5079067 0.013875882 0.13104708 0.21383215 0.23285499 -0.34229898 0.46726835 0.11743457 0.06907914 -0.6351664 0.4285371 -0.038493007 0.24939424 -0.7167781 0.043927252 0.11064059 0.26584944 -0.48988688 -0.091577224 -0.049075484 0.43534738 -0.5145972 0.251107 -0.37091517 0.21412577 -0.045239106 -0.30749303 -0.043812513
不错 -0.10234973 0.15719245 0.019030541 0.265816 -0.14609954 -0.10677438 -0.17239489 0.05038606 -0.2529129 0.04911761 -0.075157754 -0.028554162 -0.012216176 0.05735131 -0.0032995832 0.04233747 0.026696913 -0.026621493 0.08467903 0.048855536 0.0598397 0.04761012 0.13144572 0.018253963 -0.089884795 -0.10737756 0.0072228163 0.08620769 0.014006151 -0.020311374 0.03823412 -0.0503429 0.03178328 -0.0762517 -0.16438815 0.18979357 -0.048317503 0.0427107 0.020505335 0.09371695 -0.10748025 -0.13078567 -0.09460051 0.053978637 -0.034486983 -0.20047043 -0.06901046 -0.1630252 -0.0058553442 0.03771946 0.084031 -0.031551275 0.04751097 0.061366033 -0.20526825 -0.08043351 -0.03661587 -0.0056250268 -0.09060468 -0.02688584 -0.005143353 0.04855044 0.02678985 -0.1331151 -0.08623782 0.020488508 -0.056529988 0.131158 -0.10598421 0.09570866 -0.038698297 -0.04547127 0.045106888 0.016746808 -0.17966457 -0.09577317 -0.13458632 -0.17048529 -0.051658954 0.13040021 -0.09906183 -0.050285846 0.07585667 0.02094461 0.07885058 -0.06057739 0.085476905 -0.106493525 -0.14567955 0.079008594 0.047423128 0.0023759888 0.23500878 -0.05526662 -0.0669547 -0.024631005 0.051461376 0.03705174 -0.0643145 -0.11628672 0.067228585 0.010985291 -0.020131815 -0.07136902 -0.06586042 -0.032850135 -0.14552782 -0.027348742 -0.0932908 0.11866074 -0.08773754 -0.030416027 -0.19897817 0.113623954 -0.041471466 -0.07216194 -0.15335552 0.13635561 0.014838012 -0.014479398 -0.06330014 0.23277314 -0.066204295 0.032598075 -0.0020066707 -0.040052865 0.14022052 0.0006573496
篮球 -0.33857438 -0.14793362 0.05650632 -0.3943918 0.439361 0.6186655 0.14083388 -0.36763513 0.53836393 -0.03425441 0.2766189 -0.04843446 0.20014386 -0.38785425 -0.14216113 -0.00854158 -0.1748834 0.12649328 -0.5254843 -0.2753125 0.45015597 0.071689636 0.2420112 -0.033235632 0.5206566 0.19062912 -0.23852544 -0.129145 0.08532916 -0.08032244 -0.21515092 0.05996458 0.029374603 -0.14125083 0.11681962 -0.29580295 0.32405797 0.39376906 -0.060589228 -0.35890052 0.5220436 0.5841204 0.31051642 0.08305453 0.25641137 0.37471884 0.45912698 0.63961107 -0.35027146 -0.41833338 -0.07282307 -0.3800729 -0.15297025 -0.19799118 0.28228778 0.068676345 -0.13249385 -0.1604678 0.040110562 0.082934275 0.100591965 -0.12858945 -0.14654388 0.3601099 0.2497707 -0.062059466 0.24119772 -0.37660617 0.18122974 -0.48668092 0.09278048 -0.14231278 -0.1920201 -0.3634483 0.7161511 0.3216647 0.43867177 0.19213071 -0.48078847 -0.6771185 0.2538553 0.320959 -0.20340334 0.37906203 -0.78055966 0.2846552 -0.43316838 0.024235476 0.31362474 -0.10552514 -0.2654694 0.19545488 -0.5097111 -0.04297752 0.37362754 -0.08352046 -0.2581236 -0.06970132 0.3052708 0.36851802 -0.3408299 0.38096675 0.49282244 0.050472993 0.15880021 -0.60360336 0.44571018 0.06925408 0.2295923 -0.14156988 0.465114 0.34573123 0.43398228 -0.34846374 0.029047249 -0.031801526 0.31464517 -0.6894774 0.0022240214 -0.021520974 0.40226918 -0.6019011 0.12963384 -0.41811422 0.15732284 -0.049349952 -0.6350742 -0.10989306
羽毛球 -0.09546925 -0.1989636 0.27553567 -0.51321787 0.016632957 0.12943399 0.28322557 -0.14068589 0.30079472 -0.034683216 0.12323009 0.12240614 -0.29353136 0.10258329 -0.21815754 -0.3790889 -0.28782547 0.10222571 -0.23998235 -0.46935946 0.0710862 -0.2714728 -0.43863124 -0.053694356 -0.0734471 -0.099031836 -0.07071419 -0.38574046 -0.18342191 -0.10776988 0.19914453 0.152168 0.10544891 -0.28345653 0.074223325 0.018447721 -0.059138697 0.16273452 -0.15653041 -0.06082533 0.01962046 0.3112204 0.35198462 0.081375614 -0.004367755 0.1690053 0.4345623 0.19245455 0.01023027 -0.23627809 0.016670398 -0.15530771 -0.060209095 -0.180171 0.2349471 0.116320685 0.18428445 -0.16393517 0.22488755 0.09796386 0.041240085 -0.15190722 -0.2673812 0.33613694 -0.048008967 -0.05419969 0.030620005 -0.035331327 0.06223725 -0.07446278 0.50174516 -0.24204606 -0.29287934 -0.19518875 0.15515542 -0.07803515 0.21584672 0.27662787 -0.15889056 -0.08834481 0.2903834 0.26371744 -0.21291319 0.046003968 0.023408147 0.01716436 -0.2707223 0.41280767 0.19904421 -0.087184474 -0.11782439 -0.054653235 -0.50642806 -0.24557851 0.08412391 0.10625383 -0.26398608 0.30845672 0.32075897 0.1804766 -0.09723951 -0.22874008 -0.018907476 -0.1346171 0.078556255 0.25023633 0.15636301 -0.065976076 -0.046920437 -0.39134187 0.11007703 0.25523108 0.023877855 -0.18833612 0.0519325 0.26672626 0.13225174 -0.16240065 -0.06233462 0.014605179 -0.03881099 -0.36067268 0.20243669 -0.048068188 0.10409671 -0.17990628 -0.6255793 0.15923654
美国 0.41443983 -0.32801214 -0.097466655 -0.30659482 0.40762612 0.06639127 0.035052516 -0.109061174 0.3880276 -0.06966278 0.049834765 0.057539806 0.18222477 -0.14966889 0.2551621 -0.0049839634 0.27491263 -0.24225022 -0.08990925 0.008065747 -0.39813292 -0.29737255 -0.17455383 -0.106471024 0.061069857 0.46742663 0.21467426 0.060131807 0.11152059 0.18389559 -0.41088587 -0.043181993 -0.22212102 0.27773327 0.49517214 -0.53346235 0.06462617 -0.17211768 0.20873904 -0.0038917423 0.14883128 -0.053019278 -0.18074988 -0.28010222 0.031603143 0.54653466 -0.06576249 0.13286997 0.19945173 0.37751582 -0.23936102 0.17522411 0.013404584 -0.14232062 0.7243276 0.24737048 -0.2018338 0.05020673 0.17405814 0.16718484 -0.016942956 -0.1512466 0.1855099 -0.04855183 0.07057455 0.033918954 -0.16725507 -0.124906085 0.53422713 0.0011122683 -0.28858215 0.45818007 0.13920279 0.18491252 0.0736858 0.04950395 0.16044597 0.32396454 0.28780723 -0.18340157 -0.021296743 -0.10873859 -0.2527334 -0.15637134 0.06860039 0.019434933 -0.15387388 0.25473747 0.19628647 -0.15258972 -0.15067126 -0.040863466 -0.31061754 0.43843788 0.045176785 0.029393842 0.21079831 -0.12346093 -0.22404276 0.19490533 0.042328853 -0.06334907 0.03540229 0.11426417 0.08989266 0.28901094 0.35521477 0.118150234 0.5014918 0.26421794 0.039047614 -0.08522418 0.59966177 0.064675786 0.08780102 -0.03205973 0.31239265 -0.042116623 -0.007634149 0.03449309 0.1006049 -0.20646188 0.052320454 0.2662991 0.084288634 0.030181436 0.34873164 -0.32528752
俄罗斯 0.65914506 -0.5053941 -0.28001255 -0.6256461 0.36298963 -0.2102172 0.33984315 -0.07500165 0.6577938 0.086175404 -0.15154925 0.167202 0.3107329 -0.072600566 0.31279626 0.13947481 0.40567276 0.14384805 0.32157695 0.16803727 -0.61767715 0.057996526 -0.5016266 0.31432033 0.2986146 0.47219744 0.37635466 -0.088744074 0.15652083 0.0165526 0.29767415 -0.12470711 -0.2667913 0.47444117 0.36051986 -0.514661 -0.075274795 -0.49378097 0.11262488 -0.22318941 0.03096184 0.063922204 0.019033305 -0.41723758 -0.051597666 0.43267715 0.205927 0.44207716 0.1355376 0.27019385 -0.38360995 0.55056095 -0.13198546 0.050961412 0.64834696 0.3461617 0.16496922 0.37393683 -0.13437067 -0.012175681 -0.306379 0.078957744 0.14547114 0.16965297 0.2037955 0.0140309855 -0.06182992 -0.38352033 0.08634229 -0.33065516 -0.2705033 0.32253852 0.13051711 0.28720143 0.36277002 0.42938706 0.036324143 0.5464071 0.77907443 -0.059275728 -0.017446648 -0.1004272 0.22272705 0.23942383 -0.01213795 0.30726716 0.41339183 0.14903371 0.24794835 -0.2605876 0.14235061 -0.030508716 -0.1258687 -0.10769329 0.021295484 0.07022943 0.13568373 -0.54661256 -0.12689759 0.024676085 -0.2156352 0.1738309 -0.15549253 0.49799848 0.31222907 0.34270272 0.44042104 0.12032105 0.45159572 -0.06894552 0.05654608 -0.12218897 0.55256575 0.07776334 0.08528923 0.09108361 0.465727 -0.17471845 -0.20614856 0.52051187 0.028048605 -0.42633975 -0.17629008 0.24690948 -0.325442 0.44324762 -0.03750599 0.21317862
英国 0.4539676 -0.36250442 -0.09766911 -0.3124545 0.43726882 0.079359815 0.05826694 -0.1174639 0.42785177 -0.072271906 0.043193366 0.044057842 0.19866183 -0.15059799 0.2687755 -0.002631681 0.29696596 -0.27771863 -0.10280275 0.060994804 -0.40183195 -0.32235676 -0.15844795 -0.102388486 0.072376944 0.48708665 0.213774 0.08794189 0.12710239 0.2154601 -0.46852517 -0.039431952 -0.24629489 0.3276174 0.54113173 -0.6013911 0.09002661 -0.19782479 0.23070545 -0.0011503336 0.18140975 -0.07118108 -0.2025708 -0.26394936 0.03828816 0.61242735 -0.094369166 0.12779187 0.23209277 0.40840784 -0.2666648 0.18298917 0.013856986 -0.15314762 0.7490844 0.26452777 -0.19877212 0.05376712 0.20584166 0.17582259 -0.0172934 -0.14562571 0.20214504 -0.05082205 0.08536449 0.040106375 -0.1713552 -0.14080906 0.560132 -0.0018388644 -0.35297096 0.50615466 0.15052499 0.2026014 0.052293655 0.07018472 0.16513388 0.33284298 0.2941176 -0.20044857 -0.03453631 -0.10883545 -0.2581714 -0.2091826 0.0637443 0.012622489 -0.16650605 0.25495148 0.22068858 -0.15065305 -0.18004286 -0.04143328 -0.32704028 0.5208787 0.04425583 0.029997444 0.23606873 -0.14081255 -0.23966174 0.20248587 0.032354657 -0.07208765 0.047757007 0.13506609 0.09602392 0.29047486 0.36947414 0.11376687 0.5238586 0.279442 0.04404696 -0.107367724 0.66144913 0.055194337 0.10234752 -0.035458855 0.32418606 -0.041715443 0.0033669334 0.003803691 0.11431405 -0.21126683 0.080910735 0.29739895 0.09507914 0.055132903 0.37697935 -0.3762665
橄榄球 0.36701432 -0.06408228 -0.109645285 -0.21892539 0.07981704 0.072156735 0.22688377 0.41675648 0.23013598 -0.1856091 0.15092233 0.1602155 -0.45428723 0.016486203 -0.12543733 -0.4410284 -0.39651835 0.20843673 0.17497748 -0.5755156 -0.21658486 0.18113533 -0.78234065 -0.008038188 -0.21246505 0.13162741 0.03275822 -0.42841095 -0.41205966 -0.25014296 -0.00313326 0.13835658 -0.018925212 -0.038249593 -0.023534425 0.08119058 -0.12494425 -0.20829435 -0.123083174 0.019751975 -0.21147567 0.23583162 0.23507355 -0.5238638 0.19025846 0.29975387 0.14862855 -0.06386892 0.14571802 -0.03794744 -0.08251664 0.2526886 -0.111904934 -0.11571741 0.7281046 0.17928219 0.049233716 -0.13103202 0.11758509 -0.17442483 0.1245745 -0.44548815 -0.28843388 0.13886707 -0.28727198 -0.45227998 -0.112641804 -0.4600127 0.38847023 0.111027636 0.7551473 0.030529948 -0.175753 -0.30634576 0.15297683 -0.057958063 0.23198827 0.36930928 0.19934912 -0.21795312 0.39719504 -0.29706323 -0.5780644 -0.11546954 0.26426068 0.0043048635 -0.3460652 0.3946996 0.33902314 -0.07441047 0.29528522 -0.2897062 -0.7867205 -0.31990084 0.077089906 0.045635097 -0.13925602 0.24487199 0.32507053 0.38240564 0.3115523 -0.48994362 -0.26086563 -0.13351874 -0.14073876 0.620804 -0.22860299 -0.03464816 -0.19919083 -0.49325064 -0.25665808 0.25081262 0.12944302 -0.15475069 0.06284546 0.3498232 0.17022665 -0.0705105 -0.041925244 0.09166778 -0.18430182 -0.33264852 0.10402648 -0.19447516 0.10115682 -0.0761846 -0.18669206 0.3836237
